solver_type L2R_L2LOSS_SVC_DUAL
nr_class 2
label 1 2
nr_feature 14000
bias -1
w
0.000241866067255164 
0.0003388151245558714 
0.001036274596897812 
0.000318770974147076 
-0.0001323749084193413 
-0.00141380206839229 
-0.001072025404443343 
-0.00150069349031561 
-0.0005426930815500707 
-0.002636682896931457 
-0.0008567372638907931 
-0.0003162608238441919 
-0.002089545801416411 
-0.0007472469811749259 
0.002921267863787451 
-0.001202675861673255 
-0.002180305844728073 
-0.0002485572925715129 
0.001964976423898613 
0.002868642044756709 
0.001946976175994929 
-0.0009629212069275765 
-0.0005162942918571038 
0.003114020618574307 
-0.0001041804461098384 
-0.001517129096223704 
-0.002909204942720302 
0.006744727237279949 
-0.001999678764532406 
0.0001999120100806086 
-6.252276352592702e-05 
0.001061214346245196 
0.001086005245319939 
-0.003275597115868119 
0.001045315368780741 
0.0004403174348180366 
-0.0003356600888092382 
-0.00124603376425323 
0.000579407555051712 
0.001051810789052634 
-0.001429585660735915 
-0.0005725151398776958 
-0.001108047030198788 
0.001849333150977368 
0.0009452360537741507 
0.002027817719690215 
-0.002228775028175215 
0.002651008808917913 
-0.0006852859496729302 
-0.0001518304683998931 
-0.0005672248882977694 
-0.003075351613582536 
-0.001598377697098998 
-0.001783389010836257 
-0.002558884118521009 
-0.001068659812125386 
0.0001951730670195249 
-0.0002032336944164659 
0.002656804048213039 
0.001049447786626426 
-0.0007106083386881235 
0.001451080843972427 
0.0005386062114783222 
0.0004358968385644119 
-0.003005487082394374 
-0.001889818228750997 
-0.0007460296495413477 
0.001431363644022109 
0.001751659269630732 
-0.0001618139407015118 
0.0003073904238937333 
0.0005243848953192642 
0.003711809697944527 
3.918445471172578e-05 
-0.0002547714203490725 
0.0001890748655906774 
0.001579755660235473 
5.835489956963173e-05 
-0.001185979032005391 
0.00142453137972797 
0.001561207465980147 
0.002497142418624753 
-0.001545046664143754 
0.000951136359813971 
0.001159776240833392 
0.0008446272538316838 
0.0002526462901351917 
0.001328138651836031 
0.001002410493770114 
-0.0009895584552623417 
-0.002215145132011613 
0.0001026320173556584 
0.001724080948289395 
0.001351415855408767 
-0.0003189641045399477 
0.0009017436228045848 
-0.0003528264606904245 
-0.001639331812711904 
-0.0005450726645551197 
6.804257404054902e-05 
0.003480872827378198 
-0.00266805471996017 
-0.003206212838310428 
0.0002292547454039785 
-0.002764079365108154 
0.001597470304297303 
0.001106960703540048 
0.004345734322730075 
0.0008074030453100834 
-0.0009925523111668528 
-0.001093504649914833 
0.001204699537903721 
-9.756841595460687e-06 
-0.001532231383812174 
0.001974750929553432 
-0.0004830772271231983 
-0.0007748891018858146 
0.0001793844851546569 
-0.001694310653323977 
-0.001941338631861957 
0.001950505692316548 
0.000125968463204771 
-0.0003531813372056124 
-0.0002185134234017688 
-0.002547295306391134 
-0.001087265610194319 
-0.005709461630541062 
-0.001565028058715399 
-0.000864367838794512 
-0.001804619422076635 
0.005585947779767003 
-0.002249947404255045 
-0.0003096906136201724 
0.0004201759496615139 
-0.001927572229008115 
0.001488403384269787 
0.0003337003151165397 
-0.002010634677398426 
0.0003910179332973043 
0.0008994700986095285 
-0.0001600521886547456 
-0.002659184431944631 
-0.001098401971552855 
-0.0007069309993674277 
0.001020696979561766 
-0.0001096343782253579 
1.146261299417043e-05 
-0.0003940961488650303 
-0.00274699246541081 
0.000893767322296843 
-0.002455456750690709 
0.001424956570168063 
-0.00410527985557177 
-0.0003190166447043608 
-0.001899700192295042 
0.002449797414798991 
-0.0004561136958193241 
0.0004824920174102974 
-0.001950834241301168 
0.0004041033837743121 
0.0005489721340159027 
0.001111580302312734 
-0.0005579159518932771 
-0.0006153870191775507 
-0.0008129392770963559 
0.002757648738114556 
-0.001125319237993488 
-0.003265961417146033 
0.003109038505493664 
-1.430041572571883e-05 
-0.002328121320514932 
0.0008748422211520001 
-0.00142497478003619 
0.001346407340213762 
0.002590256558992909 
-0.0008372730078401053 
0.0004225742752706051 
0.002996164539194158 
-0.0008670365554213032 
0.002602651898269609 
-0.003144886445664082 
0.002336313343731522 
0.0008358564288290156 
0.0007583324476795918 
0.0009965380185229843 
0.004089768027156739 
-0.001380644654497755 
0.0008662881028325853 
-0.0002955358551102872 
-0.002060422962467013 
0.000388654890752281 
0.0004138413743275883 
-7.162378740993398e-05 
0.0009891594411175013 
0.005253224463144857 
0.0001596567131569891 
0.0003747786365755755 
0.0001725898009823734 
-0.0006418097486468267 
0.001778851057923715 
-0.001790524130112986 
-0.0009086768587335643 
-0.0004997056056277741 
-0.0004964124709975077 
-0.004246268090142752 
-0.00309700398247574 
0.002130713204486929 
0.0009795442724033086 
-0.001480114917067234 
-0.0008057712219722332 
-0.00170429021674288 
-0.0004597448088882616 
0.00342089445241108 
0.0004661017325720469 
-0.00113299778140891 
0.00339305430418545 
-0.001686788225526651 
-0.001335007102282176 
0.001353633405089095 
0.001440811691699169 
-0.003167188360535767 
0.0006619335877973882 
0.001622385268195115 
-0.0008072957698930011 
0.003167184256692145 
-0.0008388329555418518 
-0.001709156502235554 
-0.001175099514628735 
-0.001417800190079133 
0.002230083907252698 
-0.001335571754756238 
-0.001790211951961676 
0.001389601333399519 
0.003829570102886497 
-0.002784774416403839 
-0.002302535197914947 
-0.001295739153774848 
0.002460394770928354 
0.0009564142406147069 
0.0007098089465549237 
0.0008747403593670972 
-0.002168388193708113 
-0.0003996629427090703 
-0.002719296537152624 
-0.001998362758373477 
-0.0003492661510611578 
-0.001573263508165928 
0.000271614856492003 
-0.002768022879134042 
-0.000949372266979873 
-0.0004354964399146101 
0.001431390191260323 
-7.610123146369903e-05 
-0.001414870174156895 
-0.0007553666549770845 
-0.001354842251011626 
0.001270132984213698 
-0.002694032836502791 
-0.001329086417870191 
-2.984049674980504e-05 
0.002940347228237328 
-0.002160206485309034 
-0.001079603107086948 
0.002691433323704212 
0.0003704231571398994 
0.001815925627475217 
-0.002276506902389464 
0.0003608260062314451 
0.002646185049698486 
0.0001509012198101347 
-0.000716531453922765 
-0.0008292558056881491 
0.0004767845309991159 
-0.001402650348835409 
-0.001305463815156901 
-0.001793904914261715 
-0.0008577169584550636 
-0.0004563036240656273 
0.001779741331829518 
-0.0005182695190447918 
-0.002148174414393026 
0.002632840405411344 
-0.001673691049795694 
0.001638940106312825 
-0.001201413860833271 
-0.001024300237991779 
0.004002020648483715 
0.0001017993297662691 
-0.001452596503627216 
0.0001244281174048302 
0.0009534112484626708 
-0.00173147039570323 
0.001680112684472126 
-0.001882218466002883 
-0.0008550402755672861 
-0.001228769969307187 
-0.001835434380767155 
-0.0009900020262620661 
-0.0003268948639716319 
0.0004147921542444435 
0.001934550920490626 
-0.001420601320382697 
-0.001884415330322357 
0.0006131746298674645 
0.0008994771088622926 
-0.001998161848038686 
-0.001096968810083262 
0.0008880671928272189 
0.0007578311878065939 
0.0003006104193314079 
-0.00107638042060296 
0.0006269085073728283 
-0.0005783290497863149 
-0.00109683488788943 
0.00181642279551264 
-0.002573476816069087 
-0.000735963938460811 
-0.002495388339945754 
-0.002393589159046511 
0.0005742363842385072 
-0.001401386440152675 
0.0002008968752908219 
0.001600269232104349 
-0.002730551444062287 
-0.002031089101643503 
0.0001474900416929443 
0.0003568816677237149 
0.003015745752366954 
0.002217256083618038 
-0.002430938529722375 
-0.003402293332888846 
-5.87669931606947e-05 
0.00126349936092048 
0.005198735926664641 
0.003265734682462928 
0.001044044027619903 
-0.0006803100161736884 
-0.002272267975142966 
0.0004573108348950272 
0.001335883918607765 
-0.002468986009134948 
-2.719921517337742e-05 
-0.0005535404055409287 
-0.001607635613920196 
0.002198642969499965 
-0.002424988027153255 
0.002814904776777117 
0.0009145718629164515 
-0.001815935554303118 
-0.001217129518894246 
-0.0009958357279141569 
0.00216452608126291 
-0.001368281541831648 
-0.0008132011881803043 
0.0009929474834558393 
-0.0005489998144263162 
0.004157877390234037 
-0.001765829268618471 
-0.003015702742238871 
-1.466951485231938e-05 
-0.003525745418559677 
0.001714295791480952 
-0.001703444624847758 
-0.0019124532874439 
8.129242627812638e-05 
0.001819334825060355 
0.0001368947813650475 
-0.001950682976443234 
-0.0003717873213049053 
0.00248439482008484 
0.001655146588442489 
0.0009660276765629283 
-0.001793268521181201 
0.0007469126658233273 
-0.001230217234376877 
-0.0008442923932804404 
0.0005267767809692133 
-0.002304085057248528 
0.002918045778704608 
0.0002385395746036081 
-0.006692543111243781 
-0.001813172818832091 
-0.005219416353916477 
0.003997741364219767 
0.002946615498243987 
-0.002302773886178479 
0.000875551896615205 
-0.00172424082702661 
0.005978510640174447 
-0.003610955531325463 
-0.0002468695059331999 
-0.0008011176282179325 
0.0001549327697601911 
-0.00233907259629387 
-0.001819305315686852 
-0.00173794260203948 
-0.002972213170670146 
0.0006116434306140299 
-0.0009048367302006098 
-0.001438675168040211 
-0.002138408108347138 
-0.001927356532325301 
-0.0009667695216987596 
0.00242870757795495 
-0.0004923048550988073 
-0.001484801975578557 
0.0003676443856343996 
5.202000863656695e-05 
0.0001104262226755962 
0.00165074318549275 
-0.002573134171674847 
-0.001769290896292175 
0.0003873318620262182 
-0.002864097948009145 
-0.001249436161726093 
0.001813769667282962 
0.0004321933798642303 
-0.0002799825240995726 
-0.001958000392160323 
0.002226297396210689 
-0.000257396164821136 
-0.0003130423378528424 
-0.0005618022014877345 
-0.00102077118900947 
-0.0003371930554935653 
0.001779126771748005 
0.001255527559788469 
-0.001215106272567904 
-0.002506299419904959 
-0.0001108160962029386 
-0.0008453520753843089 
-0.0006678694707099993 
0.002110152676596989 
-0.0002841549040858884 
0.002321963374452649 
-0.001271345155595433 
0.002706092516762849 
0.001047890219354201 
-0.002180227408351686 
0.0004484668821066416 
0.003529361953840286 
-0.001088525349169883 
-0.001141272460455968 
0.002283378673985171 
0.004663872198332082 
-0.002596947722171476 
-0.004845080662886986 
0.002424753244074114 
-0.0002921944314656909 
0.001832017900487045 
-0.002109167497956143 
0.005982121460183135 
0.002633261012801157 
-4.377334996473604e-05 
0.001952129472908035 
-0.0001027510617778879 
0.003423287810455364 
0.0009709036977857421 
-0.0004233095580676696 
-0.003078478570249393 
-0.002086551365087206 
9.302051407918843e-05 
0.0003217606299388523 
-0.003212429452076925 
0.004446628876059169 
0.0001258331537283791 
-0.0005452916178443074 
0.0008290584087817415 
0.001283627915102748 
-0.003222387099340914 
0.0002297516031355416 
-0.007074178263159951 
-0.0002054619051358074 
2.252250804998957e-05 
-0.002701804440062753 
-0.001779675726774863 
-0.000609187230543953 
-0.003841641259785537 
0.00147858267226875 
0.001537880063391588 
-0.0003444922076102293 
-0.002554621091553524 
0.0006249162194482427 
-0.001326010720449096 
-0.001947572686343716 
-0.001133210764569236 
-0.004071765687155973 
-2.597051817128822e-05 
-0.001284899990627375 
0.001862234098164096 
0.000135235290709779 
0.002163655843238624 
-0.0001413730628851795 
0.00155057963670789 
0.002249710768130429 
-5.485425150268424e-06 
-0.002487791612536615 
-0.002016305306918246 
0.0009039246472683938 
0.002311194033431507 
0.001301147290685982 
-0.003111636373627328 
-0.00133033615881108 
-0.003179361892158835 
0.002812476813238864 
0.001508356678761296 
-0.001101132453566816 
-0.0003196434026255898 
0.0005226363507319368 
-0.002800639255780738 
-0.00358964390338886 
9.069435062621624e-05 
0.0005742278698985241 
0.005629023391818153 
0.001073076097484355 
-0.003510853965249896 
-0.001079200099785478 
-0.0008390787912471397 
0.001651905708590681 
-0.001264518646656552 
0.001159483197975775 
-0.0005625151315248232 
-0.001761483852285667 
0.001111965735413157 
0.001672329386799508 
-0.002316972475255682 
-0.0005033286073354603 
0.001816873605361267 
-0.004328441090004899 
-0.003730245584589251 
0.0003381532751586139 
-0.007594765262366017 
0.0001245406327159343 
-0.0004893595900007409 
-0.001193853619600462 
-0.001622272784274868 
0.0001433074170776262 
-0.004536957093151161 
0.001474918689247454 
0.001367742481813823 
0.001638560643724398 
1.866528641327528e-05 
-0.001302956330407765 
-0.001443255044872528 
0.0001948143713388319 
-0.004134045513874265 
0.001059921342735321 
-0.0002078745286208282 
0.001383158661481709 
0.001690678346632194 
-0.001316762618225237 
-0.0017617339181878 
-0.0001670072635890284 
-0.001258437188261495 
0.001289809471236538 
0.0005983136586670981 
-0.0006088417299235474 
0.003182569440531198 
-0.001399760449465869 
0.00244230856545581 
0.002636077142271855 
-0.001008778884380616 
-0.002815467464684938 
0.00218844738180037 
0.003351579992481896 
0.001122454060812391 
-0.001305061404234213 
0.0007358126394702005 
-0.002283267637643019 
0.0006587378885343791 
0.002179432071434737 
0.00132703583685867 
-0.0007730533879240935 
-0.0008682844314744997 
-0.002052750864186169 
-0.0001629414831499302 
0.0008672760326648762 
0.0004540735462623829 
-0.001226602248384208 
-0.003163591121774162 
-0.001687020896174387 
2.661669780604764e-06 
0.001679954279443433 
0.001137422440974079 
0.0001255430471022841 
0.0007887054755200355 
-0.001564339616553815 
-0.002370967260889715 
-0.002431838791544275 
0.0008627767677686945 
-0.0005584503452684485 
-0.00028577660291461 
-0.002165855001469581 
0.001597652264502552 
-0.001336780687581565 
0.00211536922494974 
-0.002910384452351537 
-0.0003312803466548896 
-0.00514866518113002 
0.001725371329542103 
0.001672909403366069 
0.001134486803383794 
-0.0007272254857131595 
0.004539608933231582 
0.0006200002666200832 
0.0002322156353197514 
-0.001322461188092973 
2.989961943254587e-05 
-0.0009853047431237375 
-0.001400157683532169 
-0.002345167196400289 
-0.003081610310698853 
0.001845938360234266 
0.001162694170534695 
-0.0001143681755411783 
-0.0002770468975331889 
0.006270012233003187 
-0.001305761346182997 
0.003238281770381845 
0.001379550963621019 
-0.0008477120348123502 
0.000100898710121121 
-0.00048021329180966 
-0.001244849493784887 
0.0008195283900660688 
-0.0004118404453639671 
-0.0001231869143486123 
0.003551699488627782 
0.00458793420603856 
-0.00046719211682418 
-0.0007871553373332843 
0.002182248389443996 
-0.005695903749875534 
0.0004084831643664896 
-0.0002083414905190594 
-0.002865907597555794 
0.0009153907263856196 
0.0029232044332339 
-0.005193315696615022 
0.002913131085612323 
0.0005603631169991262 
0.001237545438429905 
0.0009267236002528229 
-0.001391633520736761 
-0.003017974402604312 
0.001657629813450935 
-0.0006000410532956106 
-0.003740608057487364 
0.002970943269305754 
0.002376940468950895 
0.002174334682898051 
-0.004836490584061507 
0.001165564101270694 
-0.0006440939204237344 
0.001917721108146305 
-0.0002947504408440104 
-0.001850724234161025 
0.004407252882942867 
9.089638223535191e-06 
-0.003338121194257222 
-0.007870727995093692 
0.0012701664250655 
-0.001261771181639558 
0.001363942276866751 
0.001435824213058476 
-0.001125564277536482 
0.001116295670844076 
-0.001338733609341762 
-0.0002455173729652512 
-0.0038529753742915 
-0.001720977196575567 
0.0005472784137800357 
-0.001791590902050358 
6.692535777653596e-05 
1.300008911286478e-05 
-0.001333801164819841 
-0.002412177153991001 
-0.0008307559579464943 
-0.000654988709224539 
-0.00014629784599846 
-0.00134783937515903 
8.299061098578576e-05 
0.004761431992995308 
-0.001481691834105137 
0.0004414153085133219 
0.003859641755130816 
-0.001364377474476174 
-0.002839511784990756 
0.0005461003614600594 
-0.00138681051254293 
0.001175074027705299 
0.001464529293016933 
0.005479988732339161 
0.001423900043558229 
-0.00142644973435359 
-0.000275572496098184 
-0.003394890115803074 
0.002591813918042304 
-0.001990340133332571 
-0.0001608565182006658 
-0.0007953528865166115 
-0.001634318671052864 
-0.0009968736904195244 
-0.002037245867214042 
-0.001197348093424166 
-0.001605684058446855 
-0.001076606116303239 
0.0005586586622796226 
0.004215144413151485 
0.003342028780764892 
0.0001779813617640812 
-0.001703040355093373 
-0.002921953206754436 
0.0001299247700446164 
-0.001101448822033516 
-0.001548666272214699 
-0.0004249081326172427 
-0.001602049122620133 
-0.00121194452509115 
-0.001514266086937072 
0.001410173273281284 
0.0003341110143168295 
-0.003300720346003164 
0.0001053882063584219 
0.001717669767765547 
-0.0008352997304538055 
0.00427165157113096 
-0.003436449054888598 
0.003637868999426091 
0.0009185716795676617 
-0.001397697128314419 
0.000759826049484337 
-4.629264292975246e-05 
-1.788138215601982e-05 
-0.001702842547079773 
0.001836277437494876 
0.003046959288135201 
0.0008191113117626643 
-0.005489282420561561 
-0.001489257134114512 
-0.0001081669223269334 
0.0001932063516927219 
0.003521921801338287 
0.0008175381773718644 
0.001920048292892921 
-0.0007532988893837676 
-0.002797393904017197 
-0.00124209657526728 
-0.0001714880250431475 
0.0004640278153288167 
-0.002126074411425714 
0.0007878251812361827 
0.0001839143528001416 
0.002955550114776625 
-0.002804844789219212 
-0.004706758129678316 
-0.0006667420753181694 
-0.002074498736355004 
-0.005042781808959377 
-0.004632926739755583 
0.00243504810408026 
0.0008866360562827032 
-0.002323591977603536 
-0.00281052904157962 
0.002027445507573978 
-0.001481585247194727 
0.003145152696919186 
0.002438531756805746 
0.0008017811017013163 
-0.001290898674539272 
-0.001661020029785682 
0.002574455644247501 
0.003546748067822387 
-0.000453029393906018 
-0.004550555226369104 
0.004430099210916398 
0.001992288701683909 
0.0007931538779637553 
0.001540283704810907 
0.0004980613369674842 
-0.001534274436653723 
-0.000229150782442643 
0.0001240265103057886 
0.004271340125240879 
-0.0007878475927565182 
0.003361103214643741 
0.00155673354521019 
-0.0008658038513225132 
0.003597069607080009 
0.000802160791118504 
-0.0004286113465757106 
-0.002999411709740861 
-0.008603611006072934 
0.006835241217499574 
-0.0009413224251106232 
-0.002889757527721078 
0.0005731475739957518 
0.001474725118975895 
0.0009637646278659631 
0.0003454375210542992 
0.002351709713083064 
-0.001129497481497122 
0.003591911205328475 
-0.0007534226175790141 
-0.0009925131574360338 
-0.001402823176187052 
0.001544922386660776 
0.001285030190434877 
0.0008836083949490707 
0.006714039885759904 
0.00116856672353816 
0.001805316483732021 
0.001827716718547579 
-0.000325605332255315 
0.0001586223389883005 
-0.001061199011223735 
-0.002796612106242349 
-0.0005659427495958159 
-1.567331822313998e-05 
0.0009513954078352665 
-0.003517272552114981 
0.002052831444956675 
0.001344156471199337 
-0.002845276911077972 
0.0003099026043464657 
0.0009650786677701335 
-0.00189577266105441 
0.004538465209937551 
-0.0010975262404269 
0.0006954692746246021 
-0.0007594310477116134 
-0.001301164882273095 
-0.001540652063726112 
0.0007329045103547108 
-0.006251712047696585 
0.0003363973203774317 
-0.0002711583457127683 
-0.0008554587878377627 
0.002475562463156084 
-0.0007770141895823885 
-0.00385523989336758 
-0.0006417671785720291 
0.002217221987052694 
-0.004777634855500663 
-0.005977725918612839 
0.001066022348231131 
4.584801455878125e-05 
-0.009543661355478445 
0.001259660360986261 
0.001588838219902848 
0.002267886424884379 
0.0003902050493107054 
0.00481723237283739 
-0.0006629410491140713 
0.000441354548364484 
-0.003083886596492509 
0.001671351062778824 
-0.001141370623350713 
0.0003001117415158915 
-0.004620150768529931 
0.002400459710307152 
-0.004258333355766668 
-0.0009845155620005874 
-0.009922812194868857 
-0.002155928144671258 
-0.0007826367296918711 
0.0004449849642229216 
-0.0006830761393641223 
0.002088383626709453 
-0.005957716075342235 
-0.003693147142222315 
-0.001905018860619029 
0.0004060494031007067 
-0.004072967878662687 
0.002535670033196478 
-0.001211733555515087 
0.005188675856423932 
-0.0001548781044599411 
0.002944653445010182 
0.003581901600280125 
0.005185035043266825 
-0.0006113896743048566 
0.0002277587064681387 
-0.006263167557179826 
0.003509625320662569 
-0.004436099541520372 
0.002058362047553834 
0.003638453946351882 
-0.001153852225578031 
-0.0007479811891825515 
-0.0009568668219711409 
-0.002883457847294667 
0.001307695193571796 
0.002961205786598713 
0.00179089229122057 
0.003543364108246747 
-0.001481596105774622 
0.004818719569964664 
-7.296447986792674e-05 
0.003461758160862993 
5.967440504406637e-05 
-0.001354836310480905 
0.0005286842014659041 
1.578418073083379e-05 
0.003553279397740148 
0.001729701882495191 
0.002093680106345984 
-0.002654910394794893 
-0.0009338047056984568 
-0.002016731327302421 
0.002363129954155458 
0.003265739504280316 
-0.00228046205271231 
0.0009118846378273365 
0.003047024280111543 
-0.001648416669387579 
0.001274472528621382 
-0.0001574984139333366 
0.005186530529168531 
0.002867013344527187 
0.005323423472210775 
0.002640618962398485 
0.001397382223581951 
0.00293137490571291 
0.0001932025185826722 
-0.004281662053099896 
0.003200417192415461 
0.002131710492862201 
0.007880119760033203 
-0.002474545376911327 
-0.000201374774993067 
-0.002071809429246254 
0.004357870363837056 
0.001705438352572862 
0.002759357379131064 
0.001892795987119797 
-0.002354458155878152 
-6.190896926044234e-05 
0.001720954780924337 
-0.003058321952787235 
0.00173583291404767 
0.0011583838026581 
0.004964977935311275 
-0.006433825850077062 
0.005094301337114805 
-0.001176513789744551 
0.005399467776681068 
-0.002739035345112177 
0.003720820779223487 
-0.004840922995373922 
-0.003322249111734465 
-0.007536695952328441 
0.003993123405796026 
-1.874708614379084e-05 
0.004947055888552516 
0.003139208075194539 
-0.002067526796984021 
0.002742189734158088 
-0.00164563686658606 
-0.009133684737623637 
0.001592576114576569 
0.002827074112533982 
0.001676450570581125 
-0.000674266675970797 
0.007200767421830802 
-0.004704855540186126 
0.000488683779397441 
0.001967704513055806 
-0.0009645430932491833 
-0.008341474312870094 
-0.00338545820440126 
0.001150444294310969 
0.0023689207820987 
0.004409614695736902 
0.002943966475003511 
-0.008988367279192812 
-0.002320141407099714 
0.004797516013149867 
-0.001557870130274873 
0.0002722227344374707 
-0.0008250373705944364 
-0.00426029104718898 
-0.001681992340391333 
-0.003483483501618356 
-0.0002734076152636021 
0.003293075668836112 
0.00335520158014776 
-0.0009969810303653895 
0.001382054819560994 
0.001463166516600481 
-0.0008344795024187524 
-0.0006651939371318221 
-0.001094740343157257 
-0.002759857414007214 
0.0008427676214755951 
0.002175818911437119 
0.001198685491379097 
0.0001050323513692887 
-0.0009178672012143079 
0.003441321809846627 
0.0001058988691205932 
0.0004831199806144028 
0.001597203586432896 
0.001925131912792327 
0.0007439539300493139 
-0.000349842866401521 
-0.0006015216061736913 
-0.001469182418839079 
6.261755976239231e-06 
-0.001803705803195226 
0.0002413558093923357 
1.40633878611003e-05 
-0.002236758302890367 
-0.0009871673653553442 
0.0002221806529227556 
0.001305939827861701 
-0.0002326271270506075 
-0.0007080144068568892 
0.001357499848167855 
0.0002735734622294723 
6.702086649891519e-06 
0.0007603131553380961 
-0.001147918571741153 
0.001425652173626627 
-0.0008905869483777385 
0.0005942118969885871 
-0.001083700783092462 
0.001310446042291784 
-0.0003364370833498312 
0.0005383499190809105 
0.0006281904516888648 
0.001414585974941455 
0.000114692251274087 
-0.0002147814431389334 
-0.0001317668817259078 
0.0007600049039539007 
-0.001293607012403952 
-0.0001461770440633916 
0.001536980654677708 
-0.0008813653987016751 
-0.001146077272627748 
-0.0007751190789283083 
-0.002187995181857819 
-0.0005246482443100958 
0.002300102186523404 
0.0002784255187100528 
0.001486024382161567 
0.0008559411581865546 
-0.000792139496561453 
-0.0003029191175100005 
-0.001189289271830377 
-0.000961062844746181 
-0.0002079184545299561 
-0.000180012566997255 
-0.0007333552628464778 
-0.001059839164461241 
0.0007948829663172282 
0.0001668048809373378 
0.002401715429130855 
-0.000917966222713212 
-0.0008559985119235858 
0.001358898780650143 
-5.464252158666675e-05 
0.000842635296585257 
-0.0008836624209062924 
-0.0007168155770735338 
6.973795372327065e-05 
0.001362498470860638 
0.0002026513391335308 
0.0001412504224100394 
0.0001979059542648932 
0.0002977376606667531 
-0.0007025606093051862 
0.0001871157424789525 
-0.0005736193477299032 
0.0001867938053233162 
-0.0001152693884110863 
1.90321062187373e-05 
0.0003788353268695685 
0.001572038489834232 
0.0006824700517236137 
0.000407029371060335 
-0.0009159618417143927 
-0.0002952987731398992 
0.0006800186697685508 
0.0008580600215124036 
-0.0003921337263182588 
0.0007059905998670461 
0.0006251041983885122 
-0.0008579940161723038 
-0.00011726278355022 
0.0004700746017102059 
-0.002582682278568624 
-0.0003133510944171024 
0.0003278841844178033 
-3.980204553662322e-05 
-9.105704159493159e-05 
-0.0009888288943796044 
-0.0001268072167428093 
0.001104867167994859 
2.44162235446736e-05 
-0.001063568976511792 
0.003073325203395095 
-0.0005120404743088141 
0.000227568418903358 
0.000299160183299125 
0.0004888060522343328 
0.002087421754699947 
-6.453255316460283e-06 
0.0009383841456413946 
-0.0001254763564138664 
0.00226098661067994 
-0.001073168276715856 
-0.0002395658653902723 
0.001573387253534933 
-0.0009971217500000685 
-0.0006092205660516405 
-0.001561040498105965 
-0.002230882722340132 
-0.0008460969660513468 
3.874458086653345e-05 
-0.0003914012997974642 
-0.0001287733286720014 
-0.0002744255243570769 
-0.002615338835047356 
-0.001129238992105024 
-0.0005922158935140097 
-0.001303562534222607 
-0.0002252048869071264 
-0.002322223668118172 
0.0001758710981536536 
-0.0006341415583480342 
-0.000168058116077391 
0.0009753450737090177 
0.002023320036920098 
-0.002175671010993855 
0.0005739747312108798 
-0.0008123213926359735 
0.0005022945888415876 
0.0001515170414455414 
-0.0002125052357417878 
-0.0008319292860143474 
-0.0002580645102258643 
0.0005018290302030063 
0.0001909807864527097 
0.001430857772011048 
-0.0004538731015604943 
0.0003349270460730444 
-0.00214033481066871 
-8.90711110092288e-06 
-0.0001063028535047713 
0.0006340332005734107 
-0.0008284265519318216 
0.000721726032574767 
-6.759595014599272e-05 
0.0006260305046981067 
-0.002284803408365438 
-0.0007573369643283068 
0.001315276061290556 
-0.0001386012723384864 
0.001294837247598691 
-0.0009169075326604126 
-0.001388492544860269 
-0.001249918779267758 
0.0005217738977257474 
0.0008967036170759719 
0.002652777756426776 
0.0008565183533115553 
0.0001329664432914486 
0.0007972129676589572 
-0.0009481517380517348 
0.001097893500941522 
-0.001591865364638788 
0.0003864603422464879 
-0.0007924951411764333 
-0.001062718103279379 
-0.0001337512392717663 
0.001133403601568649 
0.000236883338489084 
0.0008631910558376703 
-0.0006163444730742618 
0.001947311125945244 
0.0009859314165829645 
8.17955732870479e-06 
0.002605631206685239 
0.0014615697111697 
-0.001768470484740115 
2.89394737675071e-05 
0.000518599597756765 
-0.003018870097931998 
-0.0004102530459325699 
-0.000692860246797869 
0.0004169020061808791 
0.001019406817800014 
0.001318082775636765 
-0.0001509977224873321 
0.0007876627318249021 
-0.0006028625945355754 
0.001199083790873431 
0.002226629342445749 
-0.0004997239226791423 
-0.001839538014155308 
0.001165845046101371 
0.001006255660368041 
-0.002076510009212607 
-5.988822571823845e-05 
0.000626195015706167 
-0.001309196070466603 
-0.0009756844347994583 
-0.0002558555907062015 
0.0006643286122639408 
0.001076269180266931 
-0.0002967891718822654 
0.0003427394932966228 
-0.001112151036347926 
0.002585453264030258 
-0.002764372642049018 
-0.0008032393340848861 
0.001123928724110768 
-0.001018770084989533 
0.001095394890902703 
0.002827597286625431 
0.0005323063598424423 
-0.0004991197867925037 
0.001693966020224103 
-0.001469056447828065 
-0.0005499799160374788 
-8.361912083123246e-05 
-0.002097174234854024 
0.001528589300652152 
-0.001960256227169444 
-0.002141004491875012 
-0.0006401968268880743 
0.003114625540530154 
0.0003196679653846056 
-0.001581233377027741 
-0.001006767941783647 
-0.0003942656063477088 
-0.0006649340415558325 
0.001198215745652554 
0.002133220125604593 
-0.001349484246830062 
-0.0009289992021521742 
-0.0001978122584096316 
-0.0006817501939525171 
-0.00103436654580497 
0.001623665144006334 
-4.618489043476908e-05 
-0.0009770353548736671 
-0.000759328281106822 
0.0001495315496492492 
0.0002043323822936889 
0.0004519344660045267 
-0.001307129446737275 
4.024184760392964e-05 
-0.00187202121695712 
0.0002380324901050667 
-0.0001160113395969153 
0.0001722178787074402 
-0.001046197382192991 
0.0005141528302150601 
6.682350084704459e-05 
-0.0023347019391269 
0.0001953765972389278 
-6.556213739231154e-05 
0.001212036565299868 
-0.001481608998606264 
0.0007506056280937316 
0.0008182622796752041 
0.0008919585479476944 
-0.0003869537871452722 
-0.0002532806649778449 
-0.0012596024625332 
0.0008009585178433762 
-0.0004488856855057273 
-0.0001664064690586327 
-0.00155001113501597 
-0.0006941659609580979 
-0.0005373860411954361 
-0.001209512057223099 
-0.0005023752196407457 
-0.001149435951621953 
-0.0003680164523305755 
-0.0002606113294740154 
-0.0005797613277058986 
-0.002022439768145285 
0.003129126246370644 
-0.0001074819897111843 
-0.001234658405197394 
-0.0002293368549388746 
0.0005071142830800731 
0.0007490518824853613 
0.0004949490582204788 
-0.001636978541286308 
0.0003825295268639231 
-0.001054251784089038 
0.0002493798316959288 
-0.002180429371104341 
-1.659298267118478e-06 
0.0005978489888158715 
-0.0001188544535450096 
-0.00343131593452395 
0.0001023674322286246 
-0.001499773957653202 
0.001804931784608068 
-0.0004321606634522466 
0.0008204746994171237 
0.0005995604666435907 
0.0009772591867280552 
-0.0006554930914951052 
0.001360789718821629 
-0.0001688820470112437 
0.0006171104431964056 
-0.001586024317618494 
-0.000524859152463172 
-0.001381239186353446 
-5.617037039592481e-05 
-0.001614940598860208 
0.0001375158584402165 
0.0001877519429765576 
-0.00159169544725391 
0.00122026471010973 
0.0008100871369614155 
0.0004363906505639694 
-0.002417238639777662 
-0.001820514801079189 
0.0007481270036852761 
0.0004175436325045154 
0.001622259620886127 
-0.0003611629704526221 
-0.0001017724930837513 
-0.002363829661834337 
-6.298700080781279e-05 
0.002742937172248923 
0.003017895230390816 
0.002538882782927646 
-0.002031030622099549 
0.0003989695029849077 
0.001238890826726994 
0.002413798602674414 
-0.001317857468843939 
-0.0003526234931697351 
0.000137913046557939 
0.001094682331697867 
0.0003051355124325716 
-0.0002526597989756535 
0.0005703041845166098 
-0.0002296593450564006 
6.273140342804171e-05 
-0.0008384393257989715 
0.0008613047901849227 
0.002265392962673656 
-0.003067642209634704 
-0.0006488471114061217 
0.0006293859458885232 
-0.003386489656288776 
0.0002798392972508491 
-0.0003800812534044797 
0.000274978456952141 
0.001833674314708824 
-0.001245407943465852 
0.0007437720467451405 
-0.0008600684075484069 
0.001152139676431964 
-0.0008803020453163521 
0.0004684451617580054 
-0.002272195401796903 
-0.0005614020408170485 
1.789948721355799e-05 
0.0006201486190265249 
0.001069897912993943 
-0.0005935294781736295 
0.000171714845200851 
0.000723830428540899 
0.0001714692146504498 
0.0008976313343177265 
-0.002321767799462214 
-0.0002753190150677569 
0.003355673706697778 
0.0004896525530263407 
-0.001156293375874173 
-0.001400628539066413 
-0.001533929612172922 
0.001126732733663508 
0.001085202259199225 
-0.0009868912837276659 
-0.0005446967531776878 
0.002696484682111637 
0.0009307748898765781 
-6.315877016556864e-05 
0.001844079167676076 
-0.0003139229547109725 
0.001003924999779713 
-0.001730909770724966 
-0.001918950564437209 
-0.0001833970652101694 
-0.0009930366834164381 
0.0007003774503328918 
-0.001837239673851475 
-0.001190847670328994 
-0.001419921543360433 
0.0004739650076137375 
-0.0001984267057597374 
0.001692447210322413 
0.0002201205119220379 
0.0003386632479277933 
0.0009152382066185853 
-0.001070829838656616 
-0.001024846133475743 
-0.0003071293289541616 
-9.495556227456373e-05 
7.735812278059049e-05 
-0.0008108179290059014 
-0.0004841635655429869 
-0.0006309391999446977 
0.001156282065145906 
-0.0001486888405161021 
0.0007744732041683707 
-0.001997051983317223 
0.0006732420892645437 
0.0002428783687772567 
-0.0001009688337761555 
-0.000725614150217124 
0.0002933052545635678 
-0.0001445151682826403 
0.0005577006297243459 
3.03134106040568e-05 
-0.001446303410009475 
0.001472317595171231 
6.445697443240279e-05 
-0.001361428576239323 
0.0006455947387112797 
0.001822911082925127 
0.001147177664499202 
0.001450580052721674 
-0.001044302146287035 
1.206926100397693e-06 
0.0006172323999209191 
-0.001524969410634537 
0.001382661736329439 
0.0003764627205167797 
-0.0001612847348603075 
0.0001612785453789427 
0.0003473442327663089 
-1.690383344216505e-05 
1.069275752708979e-05 
0.0004025131187222044 
0.001108933020639498 
-0.002073832878462868 
0.0004877650562750364 
-0.0004918078963925868 
0.0005077567290908996 
0.002328215424407495 
-0.0002520461948719515 
0.0007054415278213137 
0.001021483632197277 
0.001292824457053084 
0.0002510498440176139 
-0.0007361032311098544 
-0.003307214238210905 
-0.002409168518254319 
0.001395156274348075 
-0.0007192165089395652 
-0.002182226883744047 
-0.000903354264920951 
1.170782057911541e-05 
0.0001853728399352317 
-0.0002217402200090192 
-0.0003501351521832788 
-0.00141466637839056 
-0.0009843693824258533 
-0.001475179594741897 
-0.0007568438936158588 
0.0007816353909058041 
-0.001598206037285976 
-0.001313310092333391 
-0.001432628153486101 
0.0005894261513602887 
0.0004286598080392576 
0.0008550759397677624 
-3.018977105118331e-05 
-0.001071910513887374 
-0.0006690219938088345 
-0.001496493890289438 
2.858229173792707e-06 
-0.0009675434551080897 
0.001323542578672941 
-0.0007764378096690857 
-0.0003566386245366762 
-0.001257623333314816 
-0.0008481695051452771 
0.001502749663238594 
-0.0006017998341755311 
0.0003644922798800176 
0.0006262666969349481 
0.0005519214724451824 
1.157923274635667e-06 
0.0007820998637921851 
-0.001684717527401427 
-0.001015787960874317 
0.0002157726768268542 
0.0003644842231107327 
-0.0007756185488606529 
-0.000224522323891039 
-0.0004761618900814433 
0.001598484211856069 
-0.0006805989415697558 
0.00184737945702524 
0.0002586417033123245 
-0.003505902036459931 
-0.001796584038639611 
0.0004763946170891326 
-0.0009235080972616617 
5.358271588326921e-05 
-0.0004255370849674339 
0.0002201389942327955 
-0.0002382671947603579 
-0.0005319833526569055 
-0.0008286669289681048 
-0.00207279904171266 
-0.0007485781671168571 
-0.000304510204465429 
0.0002799978494329609 
0.000734428834808484 
0.001772006966328088 
-0.001585771041997301 
-0.0007013974619086557 
0.0003518330759611616 
-0.001876546397282401 
-0.0001569882483923269 
-0.0006540644374480769 
-0.0008675908035867331 
0.001200504729094125 
-9.558696981503094e-05 
-0.001507632660746185 
-0.0004221830712858346 
-0.0001196191189058605 
-0.0004772445351473209 
0.003162356005089322 
0.0005841259624259512 
-0.0004201319108308754 
0.0003450881384705148 
-0.0003543142164505655 
-0.001534795036980458 
0.001001913397100037 
-3.795541600838278e-05 
3.365568349759402e-05 
-0.0003592255338800228 
-0.000554056402433485 
0.001455375896239242 
-0.0011602618250884 
-0.001102461241080259 
-0.001405078019343289 
-0.001053999912615191 
0.001828795202543109 
0.001033583174357929 
0.000976257955806657 
0.0004158578649050985 
-0.000344576188517403 
0.0004660019561600652 
0.0003034455417273141 
-0.0008398130747412124 
-0.0002338960083767977 
-0.0005451625130761394 
0.001427954389070206 
-0.000757789100455476 
-0.001010360678287322 
-0.0007952253058127031 
-0.001030887631711686 
-0.0002373668881182771 
0.0002203464592844225 
0.002101516211416255 
-0.0003124690633353026 
-0.0003804031514764181 
0.0001511191453679494 
-6.037692703820499e-05 
-0.000190877473167472 
-0.001916838025810435 
0.0001392309799842446 
-0.0003752548838949726 
-0.0003021087736110391 
-0.0003545513182480506 
0.00180823829639246 
-0.0004068066312256942 
0.0006280858116175424 
0.0001250878455947831 
-0.002103533372888689 
-0.001639869407773476 
-0.0001262124533071542 
0.0001831788225012886 
-0.0005980268671760342 
0.0004702270787458942 
-0.0007281091284996391 
-0.0003380142769753253 
-0.001332505605987476 
0.0007444855119111373 
0.0005149769857591846 
-0.0005739446770281664 
-0.002342006854746542 
0.0009457178287609916 
0.000899687382379498 
0.001826405750266683 
-0.001062281783097145 
-0.0002177241118544912 
-0.0006858219273665844 
-0.001532407248228505 
-0.001365790769582174 
0.0003796074362538043 
-0.0004094530014056012 
0.001062085102065263 
-0.0003478777066745942 
0.0004455301528841532 
-0.0008150236891420402 
-0.000622045867162005 
0.001075507351002215 
-0.001905994958474295 
0.001258089532483718 
3.628715169955279e-06 
0.001715333618288723 
0.002054218253405233 
0.0002870667185813635 
-0.0001013400478640993 
-0.001636819643581071 
0.001596012461678037 
-0.0002745946172824471 
-0.002776147436084198 
-0.0003308553902707797 
0.001687367473928873 
-0.0007144359549925473 
-0.0009078743843074546 
-0.0008984270115923211 
-0.0008253030637613666 
2.930186669962808e-05 
0.0008428090392150637 
0.0006378915054314688 
3.04450805353698e-05 
0.0005426588743227772 
-0.0009779050374859113 
0.001475449741770608 
0.001490992508486504 
-0.0006948877384272639 
0.0004731619567489485 
0.0003527724285598566 
-0.0003893429721402789 
-0.001053423403141993 
-0.0004393616214640059 
1.499650875073594e-05 
0.001692413923487058 
0.000743664246696777 
0.001257864371045419 
0.0002287706455556012 
-0.003179535524426813 
0.00159827446804374 
-4.660023964146943e-05 
0.001144040686135519 
-0.0005893169564968424 
-0.0006774708666671162 
0.00204823218506251 
-0.0002695788031155225 
-0.001281299471300543 
0.0006544795657221165 
0.0003384701866342253 
0.0006203953210937763 
-0.0005170774258738541 
-5.519608849893675e-05 
-0.0006364593695746381 
0.0009720185558411844 
0.001631249572629624 
0.00158217146421458 
0.0006830248839821752 
0.0002192996931009991 
-0.0005934987604211725 
-0.000998766741647221 
0.0001149217393390826 
-0.0005960496305337116 
0.001705542135683798 
0.001162723008727179 
0.0007860767215044207 
-0.000802587356912098 
-0.001850080867076289 
0.0001848400358977912 
0.000209608718417483 
0.001057212765251771 
0.00193718901451234 
-0.0005292427100279261 
0.0009911928844343685 
-0.0006810960859779141 
-0.002375309929128115 
0.001750350776654344 
-0.0004874567908890988 
0.0008670759988674648 
0.0008152641459620581 
0.001264314282271195 
-0.001541314775189112 
0.00110371459970607 
-0.001659245913498071 
-0.000328513095799153 
0.0009989103349583204 
-0.0005818364271022418 
0.001921589113815335 
-0.0002213514299581039 
1.34623057464727e-05 
0.0002344650884540835 
-0.001633843921832589 
-0.0005760632641528088 
0.0006220492448767349 
0.001116362506348632 
-0.0002271227954881781 
0.00216776467691393 
0.002975767909336254 
0.002368846159357182 
-0.001046854911849173 
0.0008105865106103854 
0.0005504886658888461 
-0.001382160475206259 
-0.0009000633906055631 
-0.001435229767050534 
-0.001097651303966957 
-0.0001310040195013132 
0.001169151904807073 
0.0009843934358827501 
0.0006662947128527309 
0.0001143925213888267 
0.001072425600769023 
0.0008182408068303865 
0.002191699920455812 
-0.000590772771459069 
-0.0005914827193998624 
-0.0008454801452939635 
-0.0008339292457684565 
-0.0008371256003139947 
-0.003557239541401807 
-0.0002794103149384331 
-0.0001800643169180536 
-0.001110944485744163 
-1.419081380089692e-05 
0.0006953554874067572 
0.001570230564725969 
-0.002264477849978483 
-0.001687007305704725 
-2.371857215784125e-06 
0.0001940109438498178 
0.001330885639459356 
0.001270783341390836 
0.001263827716866227 
-0.0001751149050212292 
-0.0001727392043925491 
-0.00199588277084629 
-0.001167451427398759 
-0.0004623508893157455 
-0.001805492914978955 
0.001069222825222369 
0.0007342583112670734 
-0.0009152453246090839 
-0.002983262806387959 
-0.001404907335064274 
-0.0007497900875321361 
-0.0009558083059287062 
-0.0006675337708221454 
0.0001039209029606119 
-0.001036638325367131 
0.001005250558343941 
-0.0006499288973539527 
-0.0004133294535587761 
-0.001004961885397468 
-0.0008705881043479176 
0.001843657804365844 
-0.0004972800232760177 
-9.372987184768481e-05 
-0.0003011527216869469 
-0.0009307408270927298 
0.002140209062323356 
0.00299325432820444 
0.001568871338268338 
-0.001608690152165453 
0.00262048422305595 
0.0002961056115538694 
0.0009906616463844803 
0.003229902489022242 
0.0005130841809060098 
0.000535913426141805 
-0.000488523421158339 
-0.001637205003736023 
-0.0008253968997281692 
-0.001219016872379206 
0.002072169304768218 
-0.0001109067670243216 
0.0004595048078790297 
0.0007550930300436763 
0.001582110857883385 
-0.0003475309505447154 
-0.003235081723210585 
-0.0018605492815846 
0.00129966344993378 
-0.001348544701269863 
-0.0003466382242599017 
0.001296224578848978 
1.98217209475738e-05 
0.0007067806208526016 
0.0009102307710111573 
0.0004808484321906214 
0.0008807867661693415 
-0.0006766430850946662 
0.0009847143343436177 
0.0003598477335373883 
0.0001581989939964602 
0.001290624287122884 
0.0002733474026054734 
-0.001382171308205701 
0.001124177481430468 
0.001569952624611176 
-0.0009840695062717094 
0.001334750105679178 
0.002866381541100657 
-0.0005376427101217936 
0.0002175025599409124 
0.0009185162742973334 
0.0005680728971592267 
-0.000391767137190261 
0.002215870557587736 
-0.000548662754030355 
-0.0001266345969819777 
-0.001443426969566121 
-0.0001051793743854982 
0.0003190465194886559 
-5.677281719805941e-05 
-0.0004409631821012174 
-0.0004199945603350428 
-0.0006879634156290059 
0.0004746674381133514 
0.001082472841856239 
-0.0004573649999473284 
-0.0001061889069161504 
0.001155130813876179 
0.0004591888636226175 
0.001180893470728792 
-7.511538327189746e-05 
-0.000165343538509758 
0.0004939305859628328 
-0.0006631900818770159 
-0.002733897972644253 
0.001522067512363492 
0.0003612623942482495 
0.0006273974448438923 
-0.000217749530325612 
0.001241202130552663 
-0.0009741251127745127 
0.001280895417316756 
0.0007519124611678234 
0.0006216208375352112 
0.001814610677578522 
0.001291260593212103 
-0.0004453631979096485 
0.001572738273270383 
-0.0009540178827014016 
-0.0007639480297325875 
-0.0006095167612545022 
-0.0002700214015975733 
0.00122666638147296 
0.0001737586210934102 
0.001984894475592312 
-0.0005305402756785556 
-0.0008079321562683119 
-0.001774998265706671 
-0.001574211997805298 
0.001455045942348804 
-0.001741429050325007 
-0.0006243537218090493 
-0.0004730144212723282 
-0.001448029336144911 
-0.002292009047445683 
-0.00125629526518775 
-0.0008837530306794382 
0.001575004867978786 
0.0006355894244074179 
-0.0003099688034226836 
-0.001100549145146926 
1.279828087076326e-06 
0.001334112461792098 
0.0009000457898259601 
-0.000606798750538612 
-0.002273013833190011 
8.225333314491563e-05 
-0.001969434253663407 
-0.000353210446925652 
0.001173091024348537 
0.001359048451556932 
0.001968460023586878 
0.0006750090949535098 
0.0002716293789457867 
0.0009649548660433079 
-0.001112935336911598 
-0.0006185725968299881 
0.002385923722668632 
0.001248749749409359 
0.001650693851547557 
0.001847365433059963 
-6.978375179987227e-05 
-0.0006353666387559742 
-9.564035362894259e-06 
-0.0004361769382489152 
-0.001397347796007887 
-0.000549161505850384 
-0.001204596975962617 
1.768711743061443e-05 
0.001909262754449824 
0.001715995726870777 
-0.002707206183940943 
-0.002263538157182545 
0.0002797414002519421 
-0.0004014734651624497 
0.0008325285176343219 
-0.0004117149102343548 
-0.001068097553033349 
-0.001271149001203572 
-0.002273144890580802 
0.0005033712859267769 
-0.0005026342287924075 
0.003024955266874677 
-0.0003754452422889644 
0.003248093476825465 
4.004445680044613e-05 
-0.0002235898170537871 
-8.264393656735014e-05 
-0.001530387565103701 
0.001069602572421949 
0.0008777797712206459 
0.003572191309044662 
0.002208750741640933 
-0.001397698340157851 
-0.002750124568620611 
0.00245900330456255 
0.001405779470642141 
0.0007054934664143656 
0.001120632759736833 
-0.001171119385198727 
0.0002943567744189939 
-0.002682408560106613 
-0.001307386976440609 
0.0009497081838264447 
-0.001127428744820627 
0.00146243774335297 
0.00419068445349323 
0.0004991966639269088 
0.003235719702522013 
0.001173517948967639 
0.000167473682215702 
-0.002551412258989433 
0.002006834960263717 
0.001037154914294522 
-0.003846075003067939 
-0.00457213087144393 
0.002406961157241785 
0.002070738294895868 
-0.0009625095321081318 
0.00144046996569781 
-0.001596591043482116 
0.003384591672981214 
0.000232864270535288 
0.0001806700787794989 
-0.001978999434546757 
0.0006442270053135963 
-0.0003286143698056703 
0.001689969826974422 
0.001440232107609673 
-0.003944957852707328 
-0.0009742418748486579 
0.002908311513761222 
3.533146606917973e-05 
0.0004849998907176832 
0.00115864287494509 
-0.002748729523495592 
-0.00081267949563281 
0.0009700384132963516 
0.0010110140395184 
-0.0007589244030274853 
-0.001128197729743282 
0.004563775984792884 
-0.001076701585447345 
0.0003126571774213792 
0.000913534632758677 
-0.0006777173317237958 
-4.378449301288831e-05 
-0.001767566760198116 
0.0003273778723427262 
0.002060226975567933 
0.004562482252866133 
-0.001925450652728704 
0.00283965640917851 
0.000970553929736987 
-0.00239766178476567 
-0.001378009928376837 
-0.0001739448295628907 
-0.00223804261241345 
-0.001395709145727124 
0.002559887537131723 
-0.000447129441024491 
0.002104241335980952 
-0.0003063384095259325 
0.0007827928374775451 
0.001482482538156052 
0.001799474185986843 
-0.0005623380176760162 
0.001970863130814851 
0.0009984897990997432 
-0.0008821699700375391 
-0.0001191590691629011 
-0.0007368077653999317 
0.0001155973944658593 
-0.001378423803579155 
-0.0001003215196386415 
0.0001952883225836564 
-0.0009071868259224016 
0.0009701266619887881 
0.001936742912462721 
-0.001232182512105115 
-0.002322192861066638 
-7.280716310826211e-05 
0.0006841091099365555 
0.00315642150431503 
0.0009843905264452671 
-0.0004162109520311671 
-0.002086449175981723 
0.00350390346813844 
0.0002812257065244136 
-0.001751863950946617 
-0.002325209441589874 
0.006096317193051174 
-0.00212688522351336 
0.0007209384648084646 
-0.002000982625043551 
0.0006115733015411732 
0.002742820227633609 
-0.003075063586102371 
-8.196234117184175e-05 
0.0006660847695513807 
-0.001009187948926704 
-6.94410203998789e-05 
0.0002831080024495793 
-0.0004477788662325348 
0.000691125097683635 
-0.000196338724039802 
0.0008899868867764045 
0.0003631014747250089 
0.001872724080210278 
0.002744905950114833 
0.0003315402357262986 
-0.0007950471222571658 
-6.663993831036103e-05 
0.0006013883806814665 
0.002127579776096359 
-0.00292662286805933 
-0.00364684059075369 
-0.002223757989918236 
-0.002533171186949077 
-0.0001236255171583172 
-0.0001919092940441605 
0.0002387310039884842 
0.000249486600710489 
-9.448903666078487e-06 
0.0003462496644705396 
0.0007054164937168933 
0.001787985878605187 
-0.0003059580539967874 
-0.0005849531809423977 
-0.001659673851186964 
9.668164342640483e-05 
0.0009255780808991848 
0.000229540055606196 
0.0007359936448892566 
0.001304575607046595 
-0.0007794821448919861 
0.001509615145715798 
-0.0007140131024201844 
0.0001343810616978558 
-0.0009904618706508385 
0.002069014738778975 
6.916389561312776e-05 
-0.00144875069912383 
0.001507660459899223 
-0.0004922660383065481 
0.002249165327931076 
0.0002186972946078816 
-0.0003104736001904358 
0.0009963246924960621 
0.002039279995731956 
-0.001257002707473971 
0.001242970801663723 
0.001672664889892604 
0.0002955089706996798 
-0.002571065510132187 
-0.001234605903333061 
0.002515920551857065 
0.001609494773458881 
-0.00105672467339789 
0.002634289069389622 
-0.001972089499203867 
-0.001397822103707499 
0.001859438526231301 
-0.0006170785963459443 
-0.0005008326114185791 
0.0009223032493480126 
0.001363886971161924 
0.001965321874523768 
0.0007498176762452351 
0.002068071898196758 
0.0008595341148734808 
0.004545356346447492 
-0.001727756851315192 
-0.00377458511617672 
-0.001034728566325192 
-0.002074515677208473 
-0.000428942969080503 
-0.002527560088970184 
0.0004667476592130132 
-0.001013965408396581 
0.001339102394480967 
2.06693862673019e-05 
-0.0007256882303240248 
-0.002141925311136169 
0.002583912127484554 
-0.001926679793060628 
-0.0008875501247705697 
-9.614705149379007e-05 
-0.0007346165552794007 
-0.001123561054046182 
0.001264713329897895 
-0.001621206232050779 
0.001366224986114766 
-0.001863117157814261 
-0.001107749967941324 
-0.002051396499489783 
0.0009248988006818343 
0.0003985074616568666 
0.001249932234986153 
-0.00161857898092283 
0.002031266874779152 
-0.001850026596086932 
0.0009537027846440981 
0.001417142967570531 
-0.0006462087195463716 
-0.000189601484330716 
-0.0008786156729933528 
-0.00261939617999526 
-0.001312140745138791 
-0.0009543762822369954 
-0.001437796813776293 
-0.000445886655371255 
-0.002083311492089146 
0.001072957605645069 
-0.004859756038904447 
0.001041624296519004 
-0.001432554046111756 
-0.0005115892487364478 
-0.0004656615107125267 
0.00280024461866364 
-0.00107141757463722 
0.00171467069115249 
-0.003142382679975705 
0.0002406294634107897 
0.0002950914612496916 
0.002130329266591004 
0.001755919357198582 
-0.001305366007289079 
-0.0008481945689172391 
0.0003599614333694273 
-0.00105384502942317 
-0.001246733313870119 
0.001077050155118539 
-0.0002818268301801489 
-0.002507205067592882 
0.0006062001122848534 
0.001788649929431227 
3.83037971208127e-05 
0.0003965808173007612 
8.394494604649021e-06 
0.0005038744992996855 
0.002051736410101243 
-0.0006520866324289598 
0.0002782293887011076 
-0.002110393499669507 
-0.0007248522398539246 
-0.0002519588455212069 
0.00104787869106812 
0.001036281329763042 
0.00409028398682293 
-0.0008659060663921509 
0.001246078858057592 
-0.0008823185753482157 
3.516558762101685e-05 
-0.002892174941978153 
0.001069671639605358 
0.001928419184552566 
0.001424105416360151 
0.002579739208285166 
-0.0004328828248087102 
0.002027600884649825 
0.0005869018184412592 
0.0004707879846265825 
0.0005883059607980009 
-0.002163982776619827 
-0.0001864717437165026 
-0.002166216854539178 
0.0002146384937068797 
-0.001877699975543872 
0.001986638254678 
0.001677055452041867 
0.0004046894498437548 
-0.001405677197374558 
0.0004023668125476477 
-0.003339476224557726 
0.001557587617891388 
0.00257888739018172 
0.001074495993076197 
0.0007407423207901466 
0.0001941479671491551 
-0.001688262022277546 
0.0006794418105331899 
0.001478025557190353 
-0.0035890709709417 
0.001457241672404155 
0.0007277415680882081 
0.001773595470928658 
-0.0003493591909474054 
0.0003598616058601917 
-0.00325612833010428 
0.0006930003487616882 
-0.002127877870505878 
0.0002844467823753066 
-0.0003963831388204048 
-0.001136562194233075 
-0.0001138841537632714 
0.001047683370688288 
0.001172741860702113 
-0.001693684335341495 
-0.001201712807090278 
-0.0007394091272820009 
0.001998738421370015 
0.0005828346697848626 
0.001574304265662405 
0.001779486445847029 
-0.001472439337109378 
-0.000919362904416343 
-0.002996863570684761 
0.0005274121919276697 
-0.001922086284086342 
0.001071551960836043 
-0.0005715090605161412 
-0.002456764486457196 
-0.0009278942756748554 
-0.002531798708272297 
0.0005227555979632455 
-0.001168520697745207 
-0.0003911229239975232 
-0.001676295536548719 
-0.001868169410524002 
0.001071784037628109 
-0.003313766195438737 
-0.001124015212306433 
-0.0003430323907940008 
-6.255925008103938e-05 
-0.001966697482611256 
-0.001469451452082868 
0.002823541684717601 
-0.0008413275507053164 
-0.0002696632622187935 
-0.0005401111861424739 
-0.0007740418165040234 
0.001122065125529848 
0.0003976454369048238 
0.0007912450504394578 
0.001319091628417296 
-0.0005645786457324849 
-0.002168358062596195 
-0.0002004033280628518 
-0.002326769122644003 
0.002332650112277756 
-0.0001835724728131902 
0.0004769288519544819 
0.0008465611068709546 
0.0007156547473708647 
-0.0005561259148511189 
-0.001634593357856751 
-0.001537669591010005 
-0.0002105401163699054 
-0.0007676011241176183 
0.001543351442345346 
0.0003388493788616645 
-0.001146295025680419 
-0.0005625427620603559 
-0.00195722311695991 
0.0007143494038350298 
0.001121116232815618 
-0.001535699354653009 
0.0002018541185659935 
0.002333204108679565 
-0.002402400508277149 
-0.001216139814161806 
-0.001425910226370814 
0.0002991169366575876 
0.002509835151608876 
-0.0001263389687056419 
-0.002175013110445072 
-0.0007179643169087659 
-0.0006569932756546711 
-0.001717414098836498 
-0.001701488651610221 
-0.0008427627956797006 
0.0001511800515332786 
-0.001939022625373835 
-0.001579361800527519 
0.00176841313026113 
-0.000403995324270832 
-0.000475996001647616 
0.0006091101785849444 
-0.001610500139084922 
0.0002216445950148793 
-6.125136137786136e-05 
-0.002052210303388244 
-0.0004915329348592259 
-0.001850596892244882 
-0.0001902232099179428 
0.001322901678141149 
-0.0005568770631912354 
-0.001590002839076619 
-5.136990060310279e-05 
-0.0001835971442941357 
0.003262673005380301 
0.001642998296544811 
-0.000725491753261879 
-0.002557290088932548 
-0.00316799625582153 
-0.0004316365270503 
-0.001087342279128578 
0.0001831635230955147 
0.0006126703277041411 
0.002052700423145616 
-0.001084114278342187 
-0.001961991659316707 
0.0006181029766449234 
-0.0008969354072967527 
0.00119960483323156 
0.0003407158951776357 
-0.002278624835994657 
0.002191371943216976 
0.0008948086698916917 
0.003367034833508416 
0.0009128912968780866 
-0.002866886922050082 
-0.0009818705352773627 
-0.001430612693110514 
0.001875215995185537 
-0.001891150199612973 
-0.00234910775703704 
0.0002494153036511685 
-0.001823782423927407 
-0.000586862748007274 
0.0004205816975774282 
-0.00123622300624191 
8.860121577768905e-05 
-0.00224633108443601 
-0.0008146102452286152 
-0.003427024813395036 
-0.001582910242952226 
-9.317441063291757e-05 
0.0007668376167465452 
-0.002264197202479567 
-0.00201389984829022 
-0.0002909840215778043 
0.0006349836242803788 
0.0003018214702616013 
-0.0007746785388304322 
-0.000909665529269599 
-0.0001047787734262737 
-0.0006104997796279405 
-0.0003292428243994183 
0.001581055856671433 
-0.002454971520733539 
0.000219278350213814 
0.001073670368683313 
-0.002514650738559822 
-0.0008340237040013181 
-0.0004004431614023868 
0.002483283910923227 
-0.0005281488806607491 
-0.0009127767834067161 
0.0008289020955250607 
-0.0002781878370798962 
0.001948544800712098 
-0.003820755346273126 
-0.0002869897185918478 
-0.000103076795886635 
-0.0004554614238412881 
-0.002372622894157463 
-0.003792942906494009 
-0.0003102909489565642 
-0.0007544340777303586 
0.001596763277214814 
-0.001842850318168062 
-0.0002613566673354294 
-0.0002633822257366355 
-0.00371224943319775 
-0.0002151856978720566 
0.002071690236042799 
-0.001734393827586937 
-0.0008223382828928533 
0.001291512268427572 
-0.0005011132988649862 
-0.0009235397471452526 
0.0002628679298888824 
-0.0003480205714436384 
0.001179234598522477 
-0.0005636783670928265 
-0.001941191714445772 
-0.001026891385471266 
-0.0001089347977363062 
-0.000637845855452219 
0.0006479654084346623 
-9.889885421800814e-05 
-0.0001988939906169982 
0.001163372400464069 
-8.60266054726669e-05 
0.001276643569481166 
0.001229093650711204 
0.002395414778472326 
0.00014331875900812 
-0.002797923451148305 
-0.001798185585031011 
0.0003268384351302946 
-0.0008205126300429573 
0.0001558363514164621 
-0.0004942388519597776 
-0.001641877568165296 
0.001083991218717008 
0.001483531840126295 
-0.00133795046791683 
-0.0006021389737466824 
-0.001727473959318328 
-0.0007881570995116827 
0.001233099710410629 
0.002435429268445062 
1.069485000216666e-06 
0.0003005261904241623 
-0.001558611555954255 
0.00565930671001913 
-0.004322905718650401 
-0.0001020140141082674 
0.001651099082577084 
-0.0004739673236519057 
0.0004998134628826063 
-0.002581200317264105 
0.003728894993224863 
0.002344734066834847 
0.002254362175904509 
0.0002930902307818358 
1.134344161043985e-07 
0.00259295235404593 
0.0007320113154362538 
0.0002661339030011462 
-0.002405086426900805 
-0.001138696904374643 
0.002316049471161739 
0.001223427661213644 
-0.00279716587070904 
-0.0009996062870353645 
0.001565861884251292 
-0.001830877745286973 
0.000483911012149409 
3.81862510780803e-05 
-0.002322157184239029 
0.0005574985653263269 
-0.004962237144875072 
0.0003728447591798117 
-0.002655016225937806 
-0.005068070527511694 
-0.0009029221925618226 
0.0001932997216356457 
-0.003101551147505881 
0.003191883577726912 
0.002048007944481945 
-0.001269906897856768 
-0.001697521417197638 
0.002613383117162864 
-0.004103638217677192 
-0.001885276083687345 
-0.0009682784507774054 
-0.001140203278413665 
0.0001134285836927446 
-0.0008670970184548575 
0.0004178065865609155 
0.0006546300936194018 
0.0008728771912203699 
6.342276580941244e-05 
0.001078131453754377 
0.003302658617333649 
0.0001450790366385972 
-0.001173651713129234 
-0.003387609661651592 
-0.001619359013132863 
0.0005821331451618118 
0.0005136471163378132 
-0.002622282655564241 
-0.0006363470304749465 
-0.002749702746279702 
0.003386717137571432 
0.001132001148847588 
-0.001726921190316533 
0.0009372104953571008 
0.001651795708003189 
-0.001337649740848278 
-0.0003588793635301261 
-0.0007378800052005363 
-0.0008390121763528492 
-0.003591644260401133 
0.00274561993060916 
0.000878197400725797 
-0.003273793737465625 
-0.0009235812933769377 
0.002199098568075103 
0.003372761822415238 
-0.001689135766779038 
-0.0006508999411068004 
-0.00221809421538225 
0.00269470858100245 
0.004608834393973492 
-0.001956195675757146 
-0.0002842260373054893 
0.005139024658542663 
0.002024543402420708 
-0.0008382727913723946 
0.0007190326137908069 
-0.002917158980475101 
0.002997784769017343 
-0.0007845653365460264 
-0.0006228708984818464 
-0.001550235462246309 
0.002532728538757221 
-0.005319456112993564 
-0.001780611010651474 
0.002715951403419039 
0.001363602642455156 
0.0006816306703241463 
-0.001024878520864865 
-0.0001252299989714239 
-0.0003284440640235056 
-0.001147787771686057 
-0.001538410763564065 
0.0008901243297542581 
0.003704668760197673 
-0.0002442498987774726 
0.0006247728381720586 
-0.001530285422789416 
4.672025746089863e-05 
0.001476322670074674 
0.001028654608549231 
0.0004868485000520291 
-0.0001801305461812864 
0.002188164489305215 
-0.000235185890570158 
0.00212731783390282 
0.0006443675826339661 
-0.001150149523813896 
-0.00153106808717457 
0.0007007117575542027 
0.0007293030922606444 
4.171595924275535e-05 
-1.807424026134004e-05 
-0.0009542356058593825 
-0.001701053891379027 
-0.002141723037860793 
0.001992069803823778 
0.0005528198492709648 
-0.002355087692973339 
-0.0002259795324716674 
-0.0009861784888165498 
-0.001471856054787162 
0.001243091868938748 
0.0009010941323029109 
-0.001315292471966315 
-0.003784491736405255 
-0.00327195131169312 
-0.0007426475139379096 
0.0005680355363190105 
-0.0001981426953164803 
-0.001276865585888884 
0.00132500739067529 
-0.0001390345475307276 
-0.001603245039541964 
-0.003056335748464921 
0.001968152215406905 
-0.0007616369315833654 
0.0003065103130839376 
-0.001122707690229677 
-0.001988074866081703 
-0.0005758285866647232 
0.002595351464380278 
-0.001570129835890161 
0.00070766648237413 
-0.005654461640959194 
0.002322744341737239 
0.001038619656829564 
-2.465652785630933e-05 
-0.003520284244961966 
0.001526379252890228 
0.0004165361152979304 
-0.0009798970347436884 
0.0005402354757239302 
-0.00139289031096508 
-0.001403299215613646 
0.001009744460434955 
-0.002658847861881448 
-0.004032008831263634 
0.003087707450337567 
0.001788455501082809 
0.0004709346346467574 
-0.0003007544806886783 
0.002751903492149168 
-0.002182293333111628 
-0.0001252312009627399 
-0.001009324955754554 
-0.002137028035721552 
-0.0009252886876912527 
-0.001805829795756883 
0.001270931651967154 
4.513948680999765e-05 
-0.001002804033680049 
0.003657147240586733 
0.002211936685337143 
0.003899587715293417 
-0.0002025813594802194 
-0.0002603176593080346 
0.001967874462852425 
0.003651297358081738 
-0.0008540621821075607 
-0.002037401913550054 
-0.003201680951726021 
0.001013802150341421 
0.003296616287605112 
0.002282654470306954 
0.000474273515721273 
0.0003265844988801106 
4.47061360607612e-05 
0.0003872342559957489 
0.00113382557098415 
-0.002656300210580087 
-0.0003446175952340469 
0.0003004725936037026 
0.001309919414101976 
0.00114845801079132 
0.000278565644851543 
0.002477916404741358 
-0.004338031276859516 
0.0002841556121996939 
-0.001042456973590951 
0.0003820778794143423 
0.001105507048166851 
-0.00183912054495266 
0.0002896996303302164 
-0.001316888003875057 
-0.003823848477627592 
-0.0004450564154995358 
0.0001631659582675154 
-0.001536138467124193 
0.0005635613699645012 
0.0021346910031166 
-0.0009882405811790871 
-0.0001255006664886977 
-0.0008544742231423704 
-0.001240359265292149 
-0.0003603889363781096 
0.001823071638755346 
0.002215435117649831 
-0.00176957276515722 
0.0005450491527023315 
0.0003738968576893317 
-0.004128614994107133 
-0.005291274624278857 
0.0004503669273473018 
0.003591855761055541 
-0.001271036304253712 
0.0008945215761870033 
0.0008718458621308918 
0.002131666334801009 
-0.0009252388755188079 
-0.0006017715651502305 
0.0003233560988128378 
-0.002537483580616769 
-0.001418481690510047 
0.0005336112260419715 
-0.0006207208515130924 
-0.0004508432825856639 
0.001456578725543786 
0.001934604127660211 
-0.0004030576467264277 
0.001667734258471347 
-0.0004078598191120746 
-0.000510060587389305 
-0.001288160629224197 
5.956406472631816e-05 
0.002560713218129628 
-0.002771027640086471 
0.000277218279575559 
-0.003400877777189452 
-0.00127766008989512 
-0.001295934644383972 
-0.001709382628933519 
-0.00275191370137618 
-0.001117368012641311 
0.001802851411049697 
0.001742651828766689 
0.0007411013985217785 
0.0009197779349515537 
-0.002230015746403633 
-0.001816719853803053 
0.0008342029468185991 
-0.001622496594099056 
-0.0006406384024477473 
-0.001776627365477346 
0.001079523686194865 
0.0006398497055631765 
0.001140434349345449 
0.002182606074865966 
-0.005577341358081426 
0.001546384980149756 
-0.001046400756262093 
0.0006992063429059585 
0.003084802791430026 
-0.0005791337732695362 
0.006722745579434664 
0.0009475385306213511 
-0.0001262219180637952 
0.001276162077233408 
-0.002127467505028845 
0.001162224515583226 
-0.00196722272969813 
0.001811157397963155 
0.002596191255781696 
-0.001042913999275335 
-0.004476159504802684 
-0.0007964030004060672 
0.0003347661849150646 
0.0001376444379159435 
-0.002379204641396441 
-1.303939207401948e-05 
0.0007911955975829047 
-0.0001481429217530037 
-0.002436533353690871 
0.001514219509375217 
-0.001942286945897055 
-0.002762768861032629 
0.001822470805507831 
-0.000289220547228805 
-0.0006589094829342039 
-0.002273619484114403 
-0.001701256305041847 
-0.004785363410534027 
-0.0002446421140689083 
0.0003484695721274873 
0.0001696085690851064 
-0.004722132086669196 
0.00175508198448837 
0.00308232475987233 
-0.001830856089053894 
-0.0010650176913948 
-0.0009176671711185586 
-0.004822842503940837 
0.003053518836530415 
0.003836976628392413 
-0.00156646187496816 
-0.001666741380305677 
-0.004689115010622729 
0.0007318515793135414 
0.001717253157982463 
-0.001912091320239171 
-0.004670319460503784 
0.0006967716099017283 
0.0006407804821303257 
0.0007424112527829865 
0.001096326625138242 
-0.00100729514381897 
-5.508697400138231e-05 
-0.001989842788965821 
-0.003117209746508696 
0.002173529290324514 
0.001754500706797769 
0.004273006068345575 
0.0008157418383683009 
0.002306863960667034 
0.002268934296797109 
0.003027430361828715 
-0.0005790221379796006 
-0.001455706618766496 
-0.000659259701406305 
0.006081136628064467 
-0.0009850887713421263 
-0.0004723781791442994 
0.0007139862558664329 
-0.0009029099260837777 
0.0008177960147498103 
-0.0007027755193462006 
0.00317309517738297 
-0.002136745580576035 
0.002024982848099168 
-0.001308175227722996 
-0.003142611385084326 
-0.0009640090461255108 
1.123664205674007e-05 
0.001323595109163533 
1.692392855754021e-06 
0.004089828865898329 
0.0009001172141390575 
0.003483880878400613 
-0.001549726016986757 
-0.001856055118860296 
0.002093476528180362 
-0.003501456886347375 
-0.002783695801069887 
-0.002159611591126062 
-0.002683083944044211 
-0.0007653197122093222 
-0.001137488393211288 
0.003586634084936656 
8.285624607912559e-05 
0.0006922342364592787 
-0.002592590115835621 
0.0007264807989796747 
-0.002546425961983084 
0.005173726218163053 
-0.004009786372981346 
-0.0009554193038834054 
-0.00104101949566617 
-0.0003977432278640461 
-0.000923381208256686 
0.001093961837790215 
-0.005857885099748351 
-0.0009261674293659043 
-0.001032637650075372 
-0.0006840450074024798 
-0.003713039653773705 
-0.0001014878139519396 
-0.002830765869077687 
9.699164869649055e-05 
-0.0006564920134711938 
-0.004212065948581203 
0.0005092599353533801 
-0.000105968653632729 
-0.001113076982891263 
-0.004786836977483383 
0.000161899688472943 
0.00265304421622214 
0.0001031057361970606 
0.0009500770862791572 
0.0005599637137667072 
0.0005476325872311358 
0.0001777770833416272 
-0.003270963980483531 
-0.0007206485785549976 
-0.0004027164917306644 
-0.000589999893450927 
-0.002052968365936745 
0.003498309251315119 
-0.004008870999381691 
-0.002768091384503783 
-0.005526249812920304 
-0.003557083741643569 
0.0008139241590187144 
0.0004916291259397724 
-0.0001590620105604018 
0.002709619897864035 
-0.000335746625949348 
-3.694922411375541e-05 
-0.003078177527693849 
-0.001265328662027324 
-0.0008889840296751316 
-0.00105824098052176 
-0.0009394702831227461 
0.002494301626773424 
0.0002246939044530393 
0.001639061319820088 
0.0005476667563558278 
0.005347647863328729 
-0.002511008103550681 
0.0004378045939609962 
-0.005301835592344961 
0.003838537371260589 
-0.001081596213950127 
0.001916659353328146 
0.001999118950648628 
0.0009190807654863646 
-0.0005513714415771267 
0.0005974010289516053 
-0.003308561487360017 
-0.001104473764534237 
0.001772691916741546 
0.001793254073699449 
0.001339695614215968 
0.003906330741410481 
-0.0004123907266574087 
0.0006874469220148115 
-0.002756741341700992 
0.0001239134362615586 
-0.000498355542649996 
-0.00213825599552493 
0.0009273494544414435 
0.001744246719499632 
0.001536665437651484 
0.001943499541174221 
0.001454135872902128 
-0.002972944396847733 
-0.0006622148416127834 
0.00158100805200202 
-0.0005165583605278166 
-0.0003597886715499723 
0.001807241151534999 
0.003874125912739985 
-0.002389691269038112 
0.004540376345423406 
-0.004235599625169314 
0.004634992902118607 
0.00337470344902914 
0.002771852521297274 
0.000196369568485399 
0.00316845106999229 
0.002919276013768078 
-0.002249156134330412 
-0.003113740418619327 
0.003877462200758305 
-0.001720421467318351 
0.005123270728715986 
0.0009631434788862312 
0.001311567004006764 
-0.00305230556997623 
0.004001863535442135 
-0.001543035955980824 
-0.001352588220947192 
5.760176948638893e-05 
0.001012714349105763 
0.002622238080043394 
0.004124630902300515 
-0.003174611887091432 
0.003114704782564658 
-0.0003498831066000098 
0.000458371696929168 
-0.006004804015462778 
0.001013133307928807 
-0.004277969238077747 
0.002886378147586595 
0.0008602894446009269 
0.00125082743948528 
0.0008312284005260883 
-0.002977550802000141 
-0.004182815464834269 
0.001125705219014789 
0.001212130019967511 
0.003889194110569184 
-0.002706435767275068 
-0.001804601862489062 
-2.394221118306011e-06 
-0.003028645732233613 
-0.00326558979764259 
0.00133750038473847 
-0.001407797640469524 
-0.001534065343757681 
-0.002641314145017333 
-0.0009960375404869943 
0.0003350682851297227 
0.001099588416332209 
0.001256203864642097 
-0.001016751181644627 
-0.007761316556717776 
0.00114245771644678 
0.00411652385665453 
0.002735561665155503 
0.003279303008687201 
0.000663701178815777 
-0.006958884082648973 
0.0002923881347319209 
0.0005891109046286118 
-0.001893774904260767 
0.002876113782988588 
-0.004115959027017473 
-0.003882387153624684 
0.001183756975383503 
-0.0003225740832010449 
0.0003720694573527932 
-0.001403007940437955 
0.0008741043349603395 
0.005946570800580884 
-0.0027903955804678 
-0.002816033293391191 
0.004404064046108388 
0.002362495346119832 
-0.004232285270862276 
-0.001154657541189651 
0.004870737281855181 
-0.001649631123607942 
-0.004023803920055668 
-0.00525577303799957 
-0.002058017240360673 
0.0007872193746786522 
-0.0006640729970852908 
-0.0004365225507948407 
0.0001262180023397629 
-0.001786066714581901 
-0.002162284024428499 
-0.002053509422413512 
-0.000590317680083697 
-0.0003285811638196741 
-0.0002766033932255259 
-0.0008299782114822269 
-0.001594762099620204 
7.083569466963981e-05 
-0.00149535959003121 
-0.0004551567033838145 
0.003193972175190251 
0.0004756373700381067 
0.0001821233349956551 
0.0003015125681563217 
0.0004327564331785746 
-0.0005425980113099656 
0.0004452589130685642 
-0.0002324897747350362 
0.0004787692455718469 
0.0001509075815627094 
-0.0002219124900916528 
-0.0007020550489349286 
-0.000582014059614715 
0.001819578321372705 
0.001587164453460483 
-0.0001870940924276436 
0.0006857030533605818 
0.0002734857205878968 
-0.0006624588383727664 
-0.001086445649498738 
0.0006100917642638984 
-0.0001018801245369132 
0.0001085636198692665 
-0.0007202340057815462 
-0.0002220388390572097 
0.002719445106853761 
-0.0006162492887170185 
-0.0009094820715981302 
-0.001117738875894341 
0.0009407060587612912 
-0.0009560612916505642 
0.0002379366053098599 
-0.004072530733685228 
0.003459436723076868 
0.001426767331870483 
-0.0004722250797822385 
-0.001264618496201149 
-0.001496576190698543 
0.002039086304168014 
-0.000281313408601141 
-0.0003585710988876609 
-0.0006858979716054205 
0.000156858757891055 
0.0006992487681982483 
5.101203095816797e-05 
0.002001498386396358 
0.0009568402618093232 
0.0002937490733286687 
-0.0004157564244828575 
-0.002422487690161124 
-0.003179659371057345 
-0.0006931195791995875 
0.001968672776315403 
0.001316279799564121 
0.002040482992233736 
-0.0008528134469035616 
-0.0007155092531744466 
0.0003795151367514523 
-0.000513162410971813 
0.0002205519284779867 
2.709412288741901e-05 
0.001530910809253807 
0.001534419299458466 
-0.0007929703197563425 
-8.024960812629484e-06 
0.0002845325010317773 
0.002243825782253628 
-3.651115626582537e-05 
-0.0003319620891569781 
0.002832003849160887 
0.001228720616544735 
0.000988142737977079 
0.0009978896362408489 
0.0003334553191476459 
0.000696465862506821 
-0.001263712585786092 
-0.001428903018213817 
0.0007310504572162349 
0.001795543699101316 
-0.0001399320616831402 
0.001435857286803419 
-6.066214559801186e-05 
-0.0009045455022900488 
0.00114518670971999 
-0.0009750368504643229 
0.0004684360688102521 
0.00342051893258731 
-0.0039898615952804 
-0.003178654010659534 
-0.0003092117951727124 
-0.003637271325964376 
-0.0001359836982300622 
0.0007201730315009804 
-0.0002662673866235217 
0.0002761273317363387 
0.00275211847783078 
0.0002719337288095644 
0.0008080060136212563 
0.000913710530153979 
0.0006425710712790423 
0.001305950432073676 
0.0007000209197445478 
-0.001119560540086378 
0.0005119627860840389 
-0.0004229709943056401 
-0.0006792795221975216 
0.0008020019080450996 
0.0004238792378767195 
0.0004769963297869702 
5.679301107299774e-05 
-0.0009450416405087834 
-0.0003335705175366895 
-0.00398541799899974 
-0.0004124069563758647 
-0.001049623193590091 
0.0008665549141942265 
0.005571453688374603 
-0.00039797046886894 
0.0005045287238934011 
-0.0005997382155947185 
-0.007752616200054598 
0.002283017405687432 
2.237869176498415e-05 
0.0006199131658718776 
-0.001665707251890564 
0.0009423656644441683 
0.001076200282512009 
-0.0006472366833045293 
0.0002811450916258149 
-0.0002908655107779553 
0.001971873175038719 
-0.0005046678353887396 
0.0006441050895142831 
0.002032327597884686 
-0.001048855143605082 
0.0005149444784100956 
-0.001531785864482876 
0.001522987166155615 
-0.0033249421287666 
-0.0007969962981581381 
-0.001485513164774362 
-9.926583497536781e-05 
0.001652014223013307 
-0.0007390439776709182 
-0.000561430263487384 
8.078545632306732e-05 
-0.0005343265205362774 
6.829006075575822e-05 
-0.0007106945351943526 
0.001754696330360933 
0.0004695026087315121 
0.003218706799491074 
-0.001724836723355065 
-0.002590942583422815 
0.00472628995230547 
-0.0004054334287593592 
0.001545606386895332 
0.000308376823900325 
-0.001277434769313409 
0.0003890283751369853 
0.002382353909234362 
-0.0002970319285587489 
-0.0001946263883514904 
0.0008621996243237262 
-0.0008065883897999124 
0.001065460670994898 
-0.0003667477859471369 
0.001600081786048818 
-0.0001067602426720148 
-0.0008605813142699803 
0.0006785963024791532 
-0.0001446027571872077 
-0.0005914197326412134 
-0.0006849713097712897 
-0.00131299274196696 
0.0002581018047609312 
0.00018387591192964 
-0.00100187906514749 
0.000248232066184482 
0.0008822423494348578 
0.005837982451201093 
-0.0004450310700578033 
-0.001139563392779879 
-0.001134509396059902 
-0.003422059058520487 
0.0008354539957265799 
0.002858193207451801 
-0.00072307794465043 
0.0004855886771848141 
-0.003481493894281428 
-0.002535505336260595 
-0.003686735876297927 
0.0002848807305730731 
0.003797771582763438 
-0.0006015847671204288 
-0.0008748216663919096 
0.0001743374159859572 
-0.001707232377484155 
0.0004909200212267131 
0.0003274391344734849 
-0.00218220041937949 
0.002179890028274258 
-0.0007878787383050745 
0.0005168153530606898 
-0.0003366419891346537 
0.001311112876982771 
-0.002111590921866392 
-0.0025381287380126 
-0.0007581835915157515 
-0.0001933127865205099 
0.001709359723807031 
0.00112484446694211 
-0.0007797980766247069 
2.138238717411958e-06 
6.816192620479057e-05 
0.001215544329696986 
-0.0002526711526973092 
-0.001514050470705492 
0.003337544413957831 
0.002578124290787104 
-0.001975230707959495 
-0.001090245877909762 
-0.0009490824536256871 
0.001572112881141441 
0.0006049572609735865 
-0.0007803005197809195 
-0.001392078820591879 
0.0001520921926795846 
0.0002303878586791938 
-0.00175580255006001 
-0.003101126347965054 
0.0009527622255435717 
-0.001207926834998558 
-0.00012977007276294 
-0.000716712713072738 
-0.0007171283487610983 
-0.000698238416604587 
0.002356846051281106 
0.0008166984809854817 
-0.000857525292320832 
0.0007991479319207693 
0.0004147791296328383 
0.0005387667560900517 
-0.002880223404575525 
-0.002749678937242782 
0.001293123735128215 
0.0002164124155041896 
-0.0006833501154238978 
0.0006243291989263386 
0.002259503623339027 
0.001454640034623941 
-0.001091263244416157 
-0.000795988244985341 
-0.0002255934392883217 
0.002081369556737276 
-0.000929942509719942 
4.137366666727234e-05 
0.0003172377039863179 
0.00266487206068022 
-0.0004107832042917513 
-0.001614015348678951 
-0.001770595614289972 
-0.001119338878326167 
0.0005401082236972239 
0.001567341703314917 
-0.0003615945407830212 
-0.001307254338515568 
0.002593791710896259 
1.124355511596203e-05 
0.001467413561679498 
-0.000759998986420104 
-0.0003997725707324354 
-0.003717612144439056 
0.000770981828281576 
-0.0004791465419683265 
-0.0001198081878974228 
0.002140879482235195 
-0.0009338248042295038 
0.000579733278534739 
0.0005979116212154865 
-0.0001143482614623893 
-0.0004244510506932091 
0.0007393389718139843 
-0.0003693677839379385 
0.001120764755900633 
0.0001433737194101384 
0.003315104860834647 
0.001297421803201787 
0.002362966420669328 
0.003210718282030589 
0.001237878742082155 
0.0002221763089897438 
-0.0001709517397163611 
0.0009755963194859094 
0.0003499008867875801 
0.003869138239605683 
-0.001915881434025835 
-0.0007495056364941439 
0.0009007838738968161 
-0.0005783019310295841 
0.002407934715648013 
-0.0009010531282119789 
-0.0006305562863343736 
-0.001480231808323854 
6.690960338831958e-05 
0.001178847095412725 
0.00178732906131915 
-0.0008313124690469451 
0.0005758212789541173 
-0.0009581078967532437 
0.0004736409028473691 
0.003759380583025434 
0.001574944407751772 
0.0009492169065661817 
0.0005274351318260714 
-0.001207578036631944 
-0.004395537297559851 
-0.0002327261757211392 
0.001494329224081206 
-0.0003297226092668934 
0.0006624901981067694 
-0.002172096574036345 
0.002896986673310455 
-0.001601909699598754 
0.001732914840356058 
0.0005128600138978702 
-0.001626702507252039 
-0.0006571445654066426 
-0.0004617501739585671 
-0.0001601763207654521 
0.00240707171389455 
-0.002878625537907555 
0.0004823647137112465 
-0.0003978342524331592 
-0.000147525575771337 
-6.541236125980528e-05 
1.497997468513944e-05 
0.001544113375181544 
0.001920227914910502 
-0.001051174380870193 
-0.000206873607051377 
0.0004917896496266533 
0.00350725502383668 
-0.0006745599069621941 
-0.0005336605403217391 
4.494810382255075e-05 
-0.001181365465368816 
0.000376720155879677 
0.002854926121543447 
7.421231035865794e-05 
-0.002201365774164996 
0.0002346403664788933 
0.0002614072376332479 
0.0004334762809826089 
0.002059214373287953 
0.001834593800754924 
0.001234597314382198 
3.809432643852487e-05 
-0.001940957106192089 
0.0007024419982399245 
0.000369124530061608 
0.0006424457280617831 
0.0008187771937409509 
-0.002580380853919081 
-0.0008317620806014172 
-0.000689630994317964 
-0.005293821719835208 
-0.0004967349461535441 
-0.002094532071580869 
-0.0001627836123908917 
0.001411990490167286 
-0.002532446730903525 
0.002798947720638062 
-0.002669893150633805 
0.004469388896057055 
-0.002122343313877104 
1.313595528866079e-05 
-0.001234181757781697 
0.0009116914790076068 
0.0002662716607596684 
-0.002109406962311362 
-0.00341186547920541 
-0.0006141229637336191 
-0.0007407804555361295 
-0.001133624700329125 
-0.0009749598484454349 
0.0005432780221627828 
-8.06076883525153e-05 
-0.003257974761551667 
0.0001923751417317724 
-0.0002888604048415387 
-0.0004304822162861072 
-0.0001410765713924641 
-0.0001896145297312694 
-0.0005107058384816818 
0.0002998370941643426 
-0.001029624251150892 
-0.001465802949511081 
0.0006801627744325261 
-0.0004910541101555855 
-0.0005316037355935291 
0.0006714087045911162 
0.00135380281345072 
-9.554097291176444e-05 
-0.0002010945807353096 
0.00202067067994841 
-0.001194668503295748 
-0.0002363043516419661 
-0.00232243788812431 
-0.002153352716662927 
-0.001061265005234754 
0.002076710009842066 
0.002387796106600054 
0.001555575547026782 
-0.004170708435135693 
-0.0006520172457453594 
-0.0007620814516865732 
-0.0007271960716349208 
0.00327215917305734 
-0.002033296438896349 
0.002031959658369126 
0.00291026110082556 
0.002204197551086474 
0.001908876982948847 
-0.001016720583152046 
-0.0002978703810033863 
0.000887487008869958 
-0.000915597530356423 
-0.002071757428156481 
0.001816302583184754 
0.0002278278442205729 
0.001554550998327262 
-0.004147601198052972 
0.002271162875334456 
0.002099564588618358 
-0.0002276379712643033 
-0.0008611377066516595 
0.002120456335757329 
0.0006954186439256556 
-0.0008569071411062786 
0.001329606282765287 
-0.0005004856146158422 
-0.00028674076019889 
0.001229664776990336 
0.0006705163857868302 
0.002998421077467549 
-0.0006080201363178822 
-0.0004006093112092198 
0.0009685794114966565 
0.001493910648156202 
0.002953224600262668 
0.0008474168239164773 
-0.0005326924176652488 
0.001477029511401622 
0.001267560839263042 
-0.00298792501774335 
0.0003539196777134464 
0.0005779661907973467 
-0.0009421712081221957 
0.000323021538134303 
-0.0005184715582574217 
-0.0016121847757364 
0.002730207738384735 
-2.749028900901186e-05 
0.0008419638982322106 
-0.0006466287670423985 
0.0003490702048519047 
2.007015161940372e-05 
-0.001672099379457814 
0.001306833247961004 
0.0009406723290448873 
0.0004655472308739815 
-0.003645251607840714 
0.0006358107322197051 
-0.001169767511094618 
0.001763587532774879 
-0.0004569015918360426 
0.0009433887254691188 
-0.0003258238919942634 
0.002131357756814975 
6.761737621507956e-05 
-1.830720336183667e-05 
-0.001956024426005233 
-0.002089952232224224 
0.001964536501708607 
0.001039863439117801 
0.001088095709030416 
-0.002725828843994491 
-0.0006002150680102687 
-0.0005942224020353793 
0.000575187032563978 
0.001145246713460994 
-0.0007164889037488169 
-0.0004931685878290037 
-0.0003906926205548018 
-0.0005886315365989016 
-0.001515565772605553 
0.0001058021447116945 
0.0009185040187334642 
0.006737216510253133 
-0.002663807168022347 
-0.005119348684753576 
-0.002215398553772729 
0.0004603306043892688 
-1.921581475786768e-05 
0.0007032652975758157 
0.0014661032280515 
0.0002244303748171893 
0.0007167787512625172 
-0.000659158456855198 
-0.002395498041908017 
-0.0008652999861961165 
0.000846563904654191 
-0.001463518372518531 
-0.002869948288156229 
-0.003026813322948096 
0.0008399124826978436 
-0.00218110888666065 
-0.002277481666949962 
-0.0007095997519940391 
-0.0004593832192286509 
-0.0003085396272108159 
-0.001766262131939641 
0.001567457617926895 
0.0008182512539782565 
-0.001676968707852249 
0.0008504774537743381 
-0.0006107664377931702 
-0.0007079098485676498 
0.0003244913519041993 
0.0003677210908542622 
-0.003777235686622381 
0.001599631619542865 
-0.0005094465941582342 
-0.001471607910186804 
0.001179636865654517 
-0.002494418759399956 
-0.002204355986534934 
0.0009612705948744028 
-0.000201209998152701 
0.0002736422219406342 
0.0004630145865061883 
-0.002450942298909951 
-0.0003321513470488573 
0.0005441216998707801 
0.0009249370958849668 
0.001786679028921732 
0.0008111569898321051 
-0.001466657314187861 
0.003189023432714308 
0.0007768034388090446 
0.002003672257014956 
0.000201035935383203 
0.001157972577465558 
-0.0005622805559010552 
0.00191450744543915 
-0.000141143620935156 
0.001582557838011872 
-0.0001640643205817338 
-0.001540239362209351 
-0.001281908421781622 
0.0006026331657876417 
-0.001309945831500398 
0.001097475022556554 
-0.001112442493344568 
-0.00047370023183032 
0.0002950492169393565 
0.0005341311660744523 
0.001169867887734739 
0.0009413510940788917 
0.0001769890814269453 
9.499089573885658e-05 
-0.0004017562796357005 
-9.843164581856587e-06 
-0.0005257819428022106 
-0.0005769452360356826 
0.002438627334503413 
-0.0006560592547185102 
-0.002400287092845673 
0.002690080016212447 
-4.681686810611212e-05 
-0.0007324134116599616 
-0.001513126000493509 
-0.00030638225548865 
-0.001929646568475403 
-0.0002242164967674501 
0.0004202662295330709 
0.002286652093605861 
0.001421381739370441 
0.003301051153523836 
0.0002031301215703572 
0.001941211658756188 
-0.0004447082145157901 
0.000475471582528343 
-0.0003903098588237016 
-0.00203577855277062 
-0.002235464796842359 
-0.002063634397114084 
-0.0007251528350254614 
0.0001841497965941052 
-0.001121019293318692 
-0.0002461878180824145 
0.00756612721791253 
0.001248376456163304 
0.003052802829215744 
-8.889378544898109e-05 
0.0007317533077854111 
0.000247790322085109 
0.000605839796462533 
-0.001862298669659454 
0.0003436461488405227 
0.001172572796873952 
-0.002120049280741738 
-0.0005222045946710738 
0.003299549685673943 
0.0002257918825970157 
-0.0002098491728607377 
0.001199868755171891 
-0.005719064526208751 
0.0009723369114295441 
0.0007329133922986917 
0.001314867038387173 
0.001116361253462409 
0.000620921634453144 
-0.006407339767523045 
0.002682782807990743 
-0.0003293265665707035 
0.0008291839693031746 
0.0006326012492448875 
-0.001429194764143026 
-0.0005948619782886208 
0.001343870385569193 
0.00129670297259073 
-0.002674097886513279 
0.0006250024731039052 
0.004131680334373819 
0.0004364997739408249 
0.002022138305126315 
0.0001473121113392108 
0.0007576748357070658 
-0.001595264829418955 
-7.216665154750464e-05 
-0.001671211919708888 
0.003145288261469884 
0.001374832063127333 
0.0004589985259704389 
-0.007799056422479381 
0.001208127955002919 
-0.001346449722228852 
0.002675315069666096 
-0.0007870162108295568 
-0.000925033983539018 
0.001495201841471232 
-0.002244291903805696 
-0.001807890470524762 
-0.002005888753308799 
-0.001039425015934307 
0.0009519845466663667 
-0.002116536461838201 
-0.0003666621854236405 
0.0009743849394546638 
0.0004833154157792596 
-0.001755522363129331 
-0.00216734495994182 
-0.003353478302673718 
0.001676663432449311 
-0.00199936110247855 
-0.0005213178146489156 
0.003491265939496571 
-0.001444728815575358 
0.00397466928141958 
0.004163717944985238 
-0.0004851327611772181 
-0.001569426869047963 
0.0002306792708890011 
-0.0003256820460262735 
0.001284949196732034 
0.00209454019111928 
0.003084004076073358 
0.001593831486660145 
-0.002487558841694984 
0.004932705144272995 
-0.002632223540035294 
0.001701152431817416 
-0.001946750381201228 
-0.002275284548248524 
0.004904545921919732 
-0.001094096822370406 
0.0002443295286912201 
-0.0003500879930398268 
-0.000696590954504816 
0.0006136841486862595 
-0.0007881023309633165 
0.003438934185090917 
0.001579845734205628 
-0.0005080571720318845 
-0.001005745411330165 
-0.0001847285534016284 
-0.000909985838028754 
0.001371457708633162 
-0.0007909276350015195 
-0.002337181739206517 
0.0005681242880717868 
0.0006878028650139055 
-0.002123502845326317 
-0.001604087786890608 
0.0008798068245033184 
-0.001453448064143697 
0.0006298262439186502 
-0.0009424807957623896 
0.002372323425007625 
0.0003605659253969168 
0.002273422105339782 
-0.00315211451850813 
-0.0005131044315836165 
0.000350445553667317 
-0.001945099429521756 
0.0009895570938276588 
-0.001321065642835267 
0.0002079866264629511 
-0.0001983103866311794 
0.0005060567275164383 
0.0008718818011451683 
0.001417299926078547 
0.0002704346467250989 
0.0001988355838966434 
0.001172161317032082 
0.0003986905714688703 
0.002024045831551482 
-0.000106706346261369 
0.00250558678298273 
-0.000450427602964642 
-0.001021196397100455 
-0.0005414276717549168 
8.500963020535127e-05 
0.001984533444796884 
-0.002292721190979979 
0.001723413254784421 
0.0007395641374366087 
0.005148710058166987 
0.001856313100913083 
4.138701790703417e-08 
-0.0009102781973419649 
-0.001455178185657869 
-0.006017190609597925 
-0.003253758181539961 
0.002148974353312464 
-0.0006527406437960611 
-0.001211242988202374 
-0.00044342500453063 
0.001579407713602764 
0.004743266447246646 
-0.002068380316808 
0.001621935518199718 
0.0007985897359006743 
-0.002369433772289555 
2.56533859358739e-05 
0.001146816459319578 
0.002837670765380015 
-0.001976784805043725 
-0.002518374516923362 
0.003685467071386 
-0.0009632046552068088 
-0.0009569004786720149 
-0.0009038918249832102 
0.0005409267847480844 
0.001201041026755778 
0.0008928662858902943 
0.002700477292572911 
0.00244096691587814 
-0.0009524899087225468 
-0.001236412284294965 
-7.866896824793586e-05 
-0.005778508796419485 
0.0007074121561852284 
-0.001512851291400525 
-0.0006175051980840274 
-0.002241718678789588 
-0.007196127846507366 
0.004060200311192113 
-0.0002220786362933869 
-0.002753869914768762 
0.0004802870794013861 
0.001851093185827939 
-0.000312571264681597 
0.0007034974318212484 
0.003169095299834369 
0.0002254647398041026 
0.001168086139185349 
-0.0001124689018324789 
-0.0001015148197826453 
-0.001357091072856926 
0.002687687435892974 
0.001032720684940411 
0.002514765087170613 
0.004927166419045322 
0.001524235434704626 
-0.0002325275606101784 
0.0007286275314997567 
-0.0004417672761296285 
-0.0005944072246498569 
0.001014346847563979 
-0.001263412587115672 
0.002324229344006844 
0.002604587281724208 
0.0005304544905445689 
-0.001901921961313822 
-0.0005428901219376695 
0.001831454002868916 
0.002079403651482634 
0.001563949153948624 
-7.497775665635539e-05 
0.001167909132759928 
0.0005149357376287489 
-0.0005625290842241214 
0.002172285342974957 
0.0001611847462029621 
-0.001318463913539419 
0.0001342941561008652 
-0.0001982181629838716 
-0.0002603340742606222 
0.001208648182746899 
0.002101401152483512 
-0.001158981822840861 
0.0005905374212872182 
-0.00262231170153051 
-0.001653291916912655 
-0.001418893121679218 
0.003153929058716643 
-0.003398069903295704 
-0.006064708955383184 
0.001783732110152208 
0.002382640216380966 
-0.008307908512549382 
0.001150413262781374 
0.0004964047312904207 
0.002667235237864553 
-0.001065794706249226 
0.005200406085469558 
-0.0008762237082951305 
0.001556668430707225 
-0.001148323790455705 
0.002479524957277384 
-0.000304635727990768 
0.0002489629653316464 
-0.004457201440874576 
0.0001208578688776616 
-0.0004497868667608942 
4.741186094852904e-05 
-0.008228229086386743 
0.0008643776088726817 
-0.001374482367206479 
2.314478971338372e-05 
0.0005106248121251927 
-0.0006917785948190999 
-0.006629977477686844 
-0.003620911118110551 
-0.000498738406022328 
2.774831637362166e-05 
-0.003617239651762832 
0.003444779354603296 
-0.00299749381638788 
0.003043787991575969 
0.0009096222817772429 
0.001319704830751983 
0.001498104852269548 
-0.0002525480111788401 
0.001270181314499139 
-0.0008338609521398482 
-0.002440618906433626 
-0.0003943577235340215 
-0.004858624354235696 
0.0009785824448101765 
0.002341089291415612 
-2.312871916148235e-05 
-0.002205283537770673 
-0.0009790014189515442 
0.0004142400812905679 
0.003792769358502113 
0.00077342122940362 
0.002548412905467549 
0.0008120749364146942 
-0.002289247319857006 
0.00520915297454119 
-0.0003366735152714178 
0.004507008687859332 
0.001355064411660481 
-0.001921563188631798 
0.0004576537903564898 
-0.0001134255751372644 
0.0006160292130664698 
-3.600386612100185e-05 
-0.0002630387798626999 
-0.003250585849807498 
0.002122481220081664 
-0.0005851911356161445 
0.001777955893194564 
0.001730846239349727 
-0.002594571870428777 
-0.0005154463723904962 
-0.0001268944353033265 
-0.0002776336374559863 
-0.001388326923380447 
0.003240719774364798 
0.002874185310383321 
0.001933370273121379 
0.002200719605581219 
0.0009084526711774013 
-0.0046151606712865 
-0.0002387236101754524 
0.001571433204520379 
-0.004111447266108816 
-0.001043447242126326 
0.003441870940122542 
0.005703857454563141 
-0.00269343827898608 
-0.0007454002188637945 
-0.0001469059568474069 
-0.000840529935524477 
0.002752008299517103 
0.003116626934196887 
0.004166257168350594 
-0.003037827533217182 
-0.000449877157695889 
-0.0006644423384943959 
2.285777453918044e-05 
-0.001024171965895875 
-0.001127023644390088 
0.001995419564127 
-0.003727656457217289 
0.002519569392903589 
0.001981475195575054 
0.001040600294699723 
-0.002159753444813485 
0.003657286855779933 
-0.006039172034741359 
-0.000412168012781655 
-0.005271411808413326 
0.004231188584131989 
-0.0009170970449501098 
0.001133476577836534 
0.002227758273754806 
0.0005676862552903526 
0.002123682743617406 
-7.787205278963635e-05 
-0.005872967556322818 
0.001679342030095096 
0.003423776186995917 
0.004495918741251988 
0.002108663324272089 
0.006098101272266124 
-0.002257650288251476 
-0.0005056425727812624 
0.001423833832881519 
0.001738897646857187 
-0.004801980021680109 
-0.002628096895466544 
-2.678787647280642e-05 
1.030234248209951e-05 
0.0007735352513274895 
0.003581135904591841 
-0.006748603805348145 
-0.003459311039295463 
0.00153614041792899 
3.320882178289766e-05 
-0.00122775447791723 
0.001421380707225104 
-0.001062750278875549 
-0.001388269808741731 
-0.003003708584918645 
-0.0003667097878012736 
0.002109473596638641 
0.002640086951206107 
-0.002846148338582234 
0.002521975393237669 
0.002616603962553285 
-0.002213402192847826 
0.0001143038784867417 
0.001637110106490754 
-0.0004311062050711443 
-0.0002150230237758384 
0.001792517646586473 
0.002517953822332154 
-3.312791983505964e-06 
0.001946780140572636 
0.003584908569339044 
-0.001589309441874319 
-0.000317394165637365 
0.001323693049928216 
-0.001191097421685218 
-0.001189620227999777 
-0.0004192104836862461 
-0.001043063219383343 
-0.0008904068719563144 
-0.0004846469994732634 
-0.000914257009486105 
-0.001093183673129647 
-0.0002711802400693854 
0.00106302074847381 
-0.001215551868106619 
-0.000522447504191316 
-0.001964983752853393 
-0.00101043945700133 
0.0002713650219051128 
0.0007163943772286184 
-0.0001187459384656242 
0.002800054136521802 
-0.0009372469615376137 
0.0007786773384697837 
0.0004001006349567851 
0.00114123355464676 
-0.002221029572721734 
-0.00209932796390908 
0.00109590066680389 
1.042989279038732e-06 
-0.0007526532013517712 
0.00169559535209654 
0.0002934395481931015 
0.001409980184946828 
-0.001980054074366712 
0.001677946788416486 
-0.0006144806825201054 
0.0004600630555553755 
-0.001730907890408685 
0.0006951393156075544 
0.001302646893209236 
-0.0001425233048878429 
0.0003778133959163608 
0.0008611318642131048 
0.001552172402643949 
-0.000640552021356815 
0.0001430385591376004 
-0.003400370458229028 
0.0004212898353679056 
-0.002850110165658658 
-8.615474227768883e-05 
-0.0008809509067127974 
-0.0008598120595813842 
-0.0001025604338425955 
-0.001532895562436721 
-0.0005815938018046047 
-0.001309151682896446 
0.0005275122258678765 
-0.0009208031833829501 
-0.0003765987068100701 
0.0005090877004669259 
-0.001668690136845449 
0.0006469736146012417 
-1.890682299922107e-05 
0.001115767314871092 
7.125521957518007e-05 
-0.001091390703266122 
-0.002112972567116478 
-0.001105601466328661 
0.001077889943947929 
-0.0006716388658998941 
-0.0006616438434968577 
4.532995716700004e-05 
0.004636432543046413 
0.0002046156821036186 
0.0008502519862348261 
-0.0007431041969367016 
6.981060582968844e-05 
0.0007950857774571768 
-0.0005051442792643403 
0.0001293819920656697 
-0.0004417813837339741 
0.0008590962280381014 
-0.001568852536091004 
0.001264983245568281 
-0.0007193909054028349 
-0.001020138835466666 
0.0002472498725030418 
0.000209887156326416 
-0.001458133076875466 
-0.000179066642440769 
0.0001792099603254775 
-0.0004215548671428471 
0.001856841001208565 
-0.0008807508631964406 
0.0002341240403725779 
0.0005949269486611789 
0.001140067701750687 
-0.00108439204630262 
-0.0006606860224590311 
1.779209328849723e-05 
0.001542720343206918 
-0.0005064484556944752 
-0.003528117070216264 
8.99732523023659e-05 
-0.001884557192853814 
-0.002263321670027795 
0.0007889439922395829 
0.001445153825178399 
0.002629546682398712 
-0.0008028217852518361 
-0.0006728702622389118 
2.024096189375883e-07 
-0.0007596957235844814 
-0.00261627041910816 
0.0007004109479656731 
0.000323456840078227 
-0.001410685387251887 
0.001102193770125682 
-0.0008245820562833881 
-0.0004861641982876376 
0.0007011757725229548 
0.0005496872277234337 
0.0002716300193802068 
0.0005197392605808328 
-0.0008181718026600669 
-0.0008206372965104892 
-0.003909220071440593 
-0.001161594371181829 
-0.0004946348587378115 
0.001924770277736282 
0.001481066390150229 
-0.001062909035153912 
-0.001660275802726239 
-0.0002349124313852337 
0.003233406710049028 
0.002945405517264783 
-0.001594639496299178 
-0.001097568902584672 
-0.0008821010069303965 
-0.00132666579912529 
0.001059718273622692 
-0.002080541537578602 
-0.001255060252910681 
0.0002215979174041841 
0.0009335428266508016 
0.0004149794416607713 
0.0007023093458219533 
-0.001866003919473079 
-0.0001499303262587614 
-0.0003687378199722207 
0.0003608098568278343 
-0.0003073421227800153 
-0.00207400421748126 
0.0001576759512611971 
-0.001611951469734148 
-0.001004062678780534 
0.00112510087840138 
-0.001281931487590349 
-0.001430779554925539 
0.0007894120504379095 
0.0002172424952523392 
0.003121310097727956 
3.987319317999268e-05 
5.250043377646958e-05 
-9.83301621527479e-05 
0.001871175936500444 
-0.002797853260310391 
-0.003482019341698504 
0.001862894011457241 
-0.0006297804003821706 
-0.001638867484363407 
7.609073554470765e-05 
0.000198341904855792 
0.00132279975277569 
0.0002930861732757034 
4.703905000335281e-05 
0.0003963432743109103 
0.001494290736065083 
0.0002149546037220465 
0.001992751755602838 
-0.001729796815694421 
0.0007763585246864232 
0.0008569149617169535 
0.0006790256821524956 
-0.001174203452964556 
0.001902584655368236 
0.001123255872755607 
0.0004042568313939445 
0.0005062398480291547 
0.001136331455229063 
0.002650918175262367 
-0.0006222085762376715 
-0.002370741690081007 
-0.001321188590885318 
0.001387805524986225 
0.0007835368592221128 
-0.001824917198961246 
0.001105322536200696 
0.001680327183449332 
0.0003390460696521958 
-0.002591726342613127 
-0.0002833122945166836 
4.811076679640267e-06 
0.001187575693619867 
-0.001339615658740746 
-0.001016935672809284 
0.001020292320397129 
-0.0006110117849972548 
0.0005414944556183051 
-0.0006346859877133766 
0.0001504695489192358 
-0.000586599192678707 
0.004556706497481183 
-0.002478841501166929 
-0.002781790555831526 
0.0006384290508399834 
0.001666909860930574 
-0.002683716856706844 
0.0006513125176817805 
0.003960798196646027 
-0.002879079351321265 
0.0003596677028890362 
0.0009409535266149642 
2.08951619666972e-05 
0.001979851854147474 
0.002799488404313038 
-0.00129410295870063 
-0.0003174284359507723 
0.0002011821944459452 
-0.0002874438164967047 
0.001604315807677744 
-0.000179843187334053 
0.000747001990704129 
0.0003593736255019333 
-0.00104703779094651 
3.292743728033275e-06 
-0.0009798802105544749 
0.00109529998550304 
0.001227776819183544 
-0.000993855516984034 
-0.0004946645636801947 
0.000503594889538655 
0.001823183714717789 
-0.0004731021102208294 
0.0001632117314064026 
0.0004892200835151875 
-0.004685930462774566 
0.001431538701519435 
0.0003503524154435116 
0.000552300162853735 
0.0005971163405940789 
0.0005778955692928924 
-0.000150173574444565 
-0.0009266632224986763 
0.000554103953224868 
0.0005219851117546935 
0.0007930004483204066 
-3.999650127055184e-05 
0.0004436451365924809 
-0.001042113029574545 
0.004108137056696936 
-0.0004815355231040485 
5.500402146475446e-05 
0.001401246086337522 
-7.764711194882973e-05 
0.002862096689093185 
-0.00020294438069596 
9.791249657956132e-05 
0.001487151286451953 
0.0004860210640922257 
-0.001249800311192075 
-0.002133720990663342 
-0.0001529723314751261 
-0.001423358624211357 
-0.0009848495201334588 
-0.0004173363400921318 
-0.001928282086877859 
0.0006154378079926048 
0.001208018867222133 
-0.0003949268070053649 
-0.001111154486949119 
0.004393964111112791 
-0.0004055426444700468 
0.003212691132303443 
-0.0008134566924037272 
0.001272499615697141 
0.001317237406651416 
-0.001369281621074707 
0.0004234133997745319 
0.002156895205659469 
-0.001432426842372485 
-0.002386048251701114 
0.001423045696939948 
-0.0002714170058793743 
-0.0015600156764062 
-0.003013838224886438 
-0.0004835986920138622 
0.000819901484114559 
0.0001974224435431064 
-0.0001058031200575874 
-0.003078574184882832 
-0.00218096711709171 
-0.0009041421040731996 
0.0005238723696700154 
-0.001553129114825499 
-0.001416231987656586 
-0.0009784679156069071 
0.0002794174330747304 
0.0008971923905031541 
0.001617760050658031 
0.0007423533519203125 
0.0002017194516984381 
-0.001746646262953445 
0.001408806163005204 
0.001664521029317423 
-0.0003281185717194083 
2.637595232378978e-05 
-0.00209673344509271 
-0.000764101797158256 
0.0007053887758335626 
-0.0001226612955349283 
0.0005337184518902224 
0.00111550497576397 
-0.002742238039000403 
-0.002103701363451688 
-0.001307887909104668 
-0.001572757089929144 
-0.0004158476593623313 
0.0002080425461710149 
-0.003034160974366202 
-0.001176480202707785 
0.003200185192271212 
0.001609120738135406 
0.005062401367118895 
0.003743184405715484 
-0.0007636199628775615 
-0.002591486500301086 
-0.001581719942545826 
0.0008924765821602488 
0.0003009093820315279 
-0.0003777630297528169 
-0.001330642483513333 
-0.0004690833081311031 
0.0002081098931842377 
0.00148394465694135 
-0.002430852821984659 
-0.0009464967556884983 
0.000886018326855644 
0.0005362211117838848 
-0.0006469139079943494 
-0.0001486102628556521 
0.00132618020981689 
-0.0002505561457249005 
0.001262357437813798 
0.001047815784293031 
0.003488781363365315 
0.002644517724092616 
-0.001609131888184156 
-0.004305157157194255 
-0.0007756932352248315 
-0.001799657959576606 
0.002540230635870052 
-0.0001106372332121293 
-0.00186136300722598 
0.001957198789439435 
0.001203826399897771 
0.001218978826134039 
